0.000000000000000000e+00,0.000000000000000000e+00,0.000000000000000000e+00,0.000000000000000000e+00,0.000000000000000000e+00,0.000000000000000000e+00,0.000000000000000000e+00,0.000000000000000000e+00,0.000000000000000000e+00,0.000000000000000000e+00
0.000000000000000000e+00,0.000000000000000000e+00,0.000000000000000000e+00,0.000000000000000000e+00,0.000000000000000000e+00,0.000000000000000000e+00,0.000000000000000000e+00,0.000000000000000000e+00,0.000000000000000000e+00,0.000000000000000000e+00
0.000000000000000000e+00,0.000000000000000000e+00,0.000000000000000000e+00,0.000000000000000000e+00,0.000000000000000000e+00,0.000000000000000000e+00,0.000000000000000000e+00,0.000000000000000000e+00,0.000000000000000000e+00,0.000000000000000000e+00
0.000000000000000000e+00,0.000000000000000000e+00,0.000000000000000000e+00,0.000000000000000000e+00,0.000000000000000000e+00,0.000000000000000000e+00,0.000000000000000000e+00,0.000000000000000000e+00,0.000000000000000000e+00,0.000000000000000000e+00
0.000000000000000000e+00,0.000000000000000000e+00,0.000000000000000000e+00,0.000000000000000000e+00,0.000000000000000000e+00,0.000000000000000000e+00,0.000000000000000000e+00,0.000000000000000000e+00,0.000000000000000000e+00,0.000000000000000000e+00
0.000000000000000000e+00,0.000000000000000000e+00,0.000000000000000000e+00,0.000000000000000000e+00,0.000000000000000000e+00,0.000000000000000000e+00,0.000000000000000000e+00,0.000000000000000000e+00,0.000000000000000000e+00,0.000000000000000000e+00
0.000000000000000000e+00,0.000000000000000000e+00,0.000000000000000000e+00,0.000000000000000000e+00,0.000000000000000000e+00,0.000000000000000000e+00,0.000000000000000000e+00,0.000000000000000000e+00,0.000000000000000000e+00,0.000000000000000000e+00
0.000000000000000000e+00,0.000000000000000000e+00,0.000000000000000000e+00,0.000000000000000000e+00,0.000000000000000000e+00,0.000000000000000000e+00,0.000000000000000000e+00,0.000000000000000000e+00,0.000000000000000000e+00,0.000000000000000000e+00
0.000000000000000000e+00,0.000000000000000000e+00,0.000000000000000000e+00,0.000000000000000000e+00,0.000000000000000000e+00,0.000000000000000000e+00,0.000000000000000000e+00,0.000000000000000000e+00,0.000000000000000000e+00,0.000000000000000000e+00
0.000000000000000000e+00,0.000000000000000000e+00,0.000000000000000000e+00,0.000000000000000000e+00,0.000000000000000000e+00,0.000000000000000000e+00,0.000000000000000000e+00,0.000000000000000000e+00,0.000000000000000000e+00,0.000000000000000000e+00
0.000000000000000000e+00,0.000000000000000000e+00,0.000000000000000000e+00,0.000000000000000000e+00,0.000000000000000000e+00,0.000000000000000000e+00,0.000000000000000000e+00,0.000000000000000000e+00,0.000000000000000000e+00,0.000000000000000000e+00
0.000000000000000000e+00,0.000000000000000000e+00,0.000000000000000000e+00,0.000000000000000000e+00,0.000000000000000000e+00,0.000000000000000000e+00,0.000000000000000000e+00,0.000000000000000000e+00,0.000000000000000000e+00,0.000000000000000000e+00
-1.390940867766028548e-08,-1.885158597742684596e-08,-6.238362403069580951e-07,-9.097799984208714053e-08,-5.449933226001912754e-06,-9.564363206727713486e-08,7.263407366452701446e-06,-2.156379563906663663e-08,-2.264026971602062550e-07,-7.222887807800861227e-07
-6.019803069540963958e-08,-5.693710072243398482e-08,-5.256110067688959604e-07,-2.221707275051373629e-07,-1.235552795086098831e-05,-2.198499720280856316e-07,1.569664279668882541e-05,-7.264636932885615042e-08,-5.362033951667826707e-07,-1.647498243612235184e-06
-3.309628972344243957e-08,-1.742505696552490258e-08,9.351768565730794806e-07,-2.555039816274919004e-08,-4.696647639635808736e-07,-1.159924806344961827e-08,-2.311467329554372354e-07,-2.829771477891589552e-08,-4.502374721537440785e-08,-7.337290474460515771e-08
-1.379012071810100822e-09,-7.260440402302022063e-10,3.896570235721164503e-08,-1.064599923447885745e-09,-1.956936516514922512e-08,-4.833020026437342670e-10,-9.631113873143219244e-09,-1.179071449121497577e-09,-1.875989467307266305e-09,-3.057204364358558302e-09
0.000000000000000000e+00,0.000000000000000000e+00,0.000000000000000000e+00,0.000000000000000000e+00,0.000000000000000000e+00,0.000000000000000000e+00,0.000000000000000000e+00,0.000000000000000000e+00,0.000000000000000000e+00,0.000000000000000000e+00
0.000000000000000000e+00,0.000000000000000000e+00,0.000000000000000000e+00,0.000000000000000000e+00,0.000000000000000000e+00,0.000000000000000000e+00,0.000000000000000000e+00,0.000000000000000000e+00,0.000000000000000000e+00,0.000000000000000000e+00
0.000000000000000000e+00,0.000000000000000000e+00,0.000000000000000000e+00,0.000000000000000000e+00,0.000000000000000000e+00,0.000000000000000000e+00,0.000000000000000000e+00,0.000000000000000000e+00,0.000000000000000000e+00,0.000000000000000000e+00
0.000000000000000000e+00,0.000000000000000000e+00,0.000000000000000000e+00,0.000000000000000000e+00,0.000000000000000000e+00,0.000000000000000000e+00,0.000000000000000000e+00,0.000000000000000000e+00,0.000000000000000000e+00,0.000000000000000000e+00
0.000000000000000000e+00,0.000000000000000000e+00,0.000000000000000000e+00,0.000000000000000000e+00,0.000000000000000000e+00,0.000000000000000000e+00,0.000000000000000000e+00,0.000000000000000000e+00,0.000000000000000000e+00,0.000000000000000000e+00
0.000000000000000000e+00,0.000000000000000000e+00,0.000000000000000000e+00,0.000000000000000000e+00,0.000000000000000000e+00,0.000000000000000000e+00,0.000000000000000000e+00,0.000000000000000000e+00,0.000000000000000000e+00,0.000000000000000000e+00
0.000000000000000000e+00,0.000000000000000000e+00,0.000000000000000000e+00,0.000000000000000000e+00,0.000000000000000000e+00,0.000000000000000000e+00,0.000000000000000000e+00,0.000000000000000000e+00,0.000000000000000000e+00,0.000000000000000000e+00
0.000000000000000000e+00,0.000000000000000000e+00,0.000000000000000000e+00,0.000000000000000000e+00,0.000000000000000000e+00,0.000000000000000000e+00,0.000000000000000000e+00,0.000000000000000000e+00,0.000000000000000000e+00,0.000000000000000000e+00
0.000000000000000000e+00,0.000000000000000000e+00,0.000000000000000000e+00,0.000000000000000000e+00,0.000000000000000000e+00,0.000000000000000000e+00,0.000000000000000000e+00,0.000000000000000000e+00,0.000000000000000000e+00,0.000000000000000000e+00
0.000000000000000000e+00,0.000000000000000000e+00,0.000000000000000000e+00,0.000000000000000000e+00,0.000000000000000000e+00,0.000000000000000000e+00,0.000000000000000000e+00,0.000000000000000000e+00,0.000000000000000000e+00,0.000000000000000000e+00
0.000000000000000000e+00,0.000000000000000000e+00,0.000000000000000000e+00,0.000000000000000000e+00,0.000000000000000000e+00,0.000000000000000000e+00,0.000000000000000000e+00,0.000000000000000000e+00,0.000000000000000000e+00,0.000000000000000000e+00
0.000000000000000000e+00,0.000000000000000000e+00,0.000000000000000000e+00,0.000000000000000000e+00,0.000000000000000000e+00,0.000000000000000000e+00,0.000000000000000000e+00,0.000000000000000000e+00,0.000000000000000000e+00,0.000000000000000000e+00
0.000000000000000000e+00,0.000000000000000000e+00,0.000000000000000000e+00,0.000000000000000000e+00,0.000000000000000000e+00,0.000000000000000000e+00,0.000000000000000000e+00,0.000000000000000000e+00,0.000000000000000000e+00,0.000000000000000000e+00
0.000000000000000000e+00,0.000000000000000000e+00,0.000000000000000000e+00,0.000000000000000000e+00,0.000000000000000000e+00,0.000000000000000000e+00,0.000000000000000000e+00,0.000000000000000000e+00,0.000000000000000000e+00,0.000000000000000000e+00
0.000000000000000000e+00,0.000000000000000000e+00,0.000000000000000000e+00,0.000000000000000000e+00,0.000000000000000000e+00,0.000000000000000000e+00,0.000000000000000000e+00,0.000000000000000000e+00,0.000000000000000000e+00,0.000000000000000000e+00
0.000000000000000000e+00,0.000000000000000000e+00,0.000000000000000000e+00,0.000000000000000000e+00,0.000000000000000000e+00,0.000000000000000000e+00,0.000000000000000000e+00,0.000000000000000000e+00,0.000000000000000000e+00,0.000000000000000000e+00
-1.767745183866771222e-09,-9.899200907288578073e-10,-2.223343896143440027e-08,-7.316178974268887052e-10,-6.167875404302707700e-08,-1.629464876187577187e-09,9.896331729814602459e-08,-1.128009719598097455e-09,-2.756802209884678568e-09,-6.047564315991551782e-09
-6.151187005574381737e-09,-3.134769860439284313e-09,-7.056335843777276233e-08,-2.533198565471292789e-09,-3.599987748581092204e-07,-5.170637348466047968e-09,4.812415509609531589e-07,-5.063931051408407580e-09,-8.557754203764641903e-09,-2.006793962994688165e-08
-7.298681832576497242e-08,-1.695966018711547268e-08,-7.082036805974021308e-07,-4.536047601942801427e-08,-2.617276390912358613e-05,-5.788441937246120731e-08,2.755628770486518591e-05,-1.527713921004438448e-07,-4.035634938221000828e-08,-2.890009997567536127e-07
-2.160055508209461499e-07,-1.613347264780247052e-07,-2.713336702484456123e-06,-1.254314891426100474e-07,-6.159424803979931878e-05,-1.363602571646190705e-07,6.665028045306399128e-05,-7.073129045285310870e-07,-2.219905041776087467e-07,-7.742602784679917933e-07
-6.159614631760241182e-07,-5.012852507003957854e-06,-5.634152447745362913e-06,-5.421405319137997137e-07,-6.263412727509677657e-05,-3.190269988414721574e-07,8.174877637120283116e-05,-3.237208225965134521e-06,-1.979163992358295225e-06,-1.774142929102049326e-06
-9.951437428603695581e-07,-4.218662323211609755e-06,-1.324984322995002345e-05,-5.997738036487870114e-07,-3.514890912294899679e-05,-3.837540825139919433e-07,6.107709425333725662e-05,-2.363397731790648110e-06,-2.367608587913172158e-06,-1.750001628499602005e-06
-3.020728965771055020e-06,-3.010537434802571201e-06,-1.353761822937166339e-05,-7.480337414622175944e-07,-6.408795866849026595e-05,-9.806706627032333006e-07,9.394936332707554268e-05,-2.090312448520560583e-06,-2.807173051108648241e-06,-3.666330124845197382e-06
1.281909269372042468e-05,-1.934919253094375731e-06,-2.046661327530202552e-05,-1.072197728475371721e-06,-9.645134165552296675e-05,-1.288564597219776296e-06,1.316700239343051855e-04,-9.461696634322256061e-06,-3.690834047075683915e-06,-1.012294943701320161e-05
3.011475874332698692e-05,-1.599978850454712136e-06,-2.749887679556340994e-05,-1.840070228624146357e-06,-1.598001332888635971e-04,-5.417109620658740849e-06,2.042089223317076661e-04,-1.778628010882838691e-05,-3.744740501856001092e-06,-1.663649168018553344e-05
1.197706534881463239e-05,-1.291420654082623613e-06,-1.906223937738903991e-05,-1.528958597233527348e-06,-1.004640373945411776e-04,-5.386260682817797489e-06,1.356432935268020012e-04,-6.599681597661505359e-06,-3.942580467015311534e-06,-9.345180104876007980e-06
-3.430005102972644824e-06,2.075941913387664573e-05,-3.281698468905706720e-06,-5.676590558209222905e-06,-4.778625744043074841e-05,-3.641519428280711751e-06,5.528303079500511516e-05,-1.442349882936351344e-06,-5.588188779595234806e-06,-5.195840267551194766e-06
9.804608823525080421e-06,3.139263299808305453e-05,3.331207672388373858e-05,-7.247143909829670010e-06,-1.020720855472432204e-04,-3.962254906823232866e-06,6.124557548505777456e-05,-2.527043065211033550e-06,-5.550342944215161576e-06,-1.439602365722730262e-05
3.236138690712084780e-05,-5.675772302158007690e-06,9.977983255312528499e-05,-3.377314047645135519e-06,-1.088092260006825589e-04,-3.468545243149859421e-06,2.964137401610066251e-05,-4.090491126016282777e-06,-8.721272597599756348e-06,-2.763997215909500319e-05
1.477850216814083730e-05,-4.547258742235021267e-06,1.073470539513761330e-05,-1.389307356022310618e-06,-4.282392648058728308e-05,-2.454886205883864725e-06,4.941241570059609135e-05,-2.015026159773633626e-06,-5.910588373270460018e-06,-1.578462994610194172e-05
-2.073465084545275454e-06,-7.937478896335735399e-07,-1.673515446539371084e-05,-4.915301297137534772e-07,-2.124867934192366812e-05,-3.172669304292401024e-06,5.229691959516644269e-05,-7.203837905298653576e-07,-3.296118146026198784e-06,-3.765171443107891065e-06
-1.681259587267880462e-06,-5.147065199323934932e-07,-1.565530028118792392e-05,-4.743115658649204064e-07,-2.527512677660859083e-05,-3.074575154368191290e-06,5.265899998644140654e-05,-6.506454882473593597e-07,-2.391405692486259156e-06,-2.941668920477959996e-06
-1.264792771022705014e-06,-5.220759566595633488e-07,-1.004935800957500357e-05,-5.447311335886946897e-07,-1.872165685968084353e-05,-2.260388637870203281e-06,3.799744575867331577e-05,-3.784369022111230988e-07,-1.858151832649007048e-06,-2.397853655416152440e-06
-5.918692725940760055e-07,-4.179187757282602166e-07,-5.538177875728611043e-06,-2.438244635011781837e-07,-2.036436711443687602e-05,-6.457067001702661921e-07,3.034786623459946779e-05,-1.042051999242191087e-07,-1.403286027422569281e-06,-1.038510805093440660e-06
-1.563373907326596145e-07,-7.598511671138330649e-08,-8.202863714087912424e-07,-4.769189527294443347e-08,-2.295339334026561375e-05,-8.262431955617687297e-08,2.508010154971436072e-05,-6.158947386714962741e-08,-3.694879645003160325e-07,-5.127056773993327614e-07
-1.495990175580904847e-08,-1.035851774335696340e-08,-2.075764384130677459e-07,-1.041461148651685463e-08,-5.603658003874449327e-06,-2.508388744788602696e-08,6.206361483081783283e-06,-4.718577850800014711e-08,-9.395298840661036149e-08,-1.931713554460878308e-07
0.000000000000000000e+00,0.000000000000000000e+00,0.000000000000000000e+00,0.000000000000000000e+00,0.000000000000000000e+00,0.000000000000000000e+00,0.000000000000000000e+00,0.000000000000000000e+00,0.000000000000000000e+00,0.000000000000000000e+00
0.000000000000000000e+00,0.000000000000000000e+00,0.000000000000000000e+00,0.000000000000000000e+00,0.000000000000000000e+00,0.000000000000000000e+00,0.000000000000000000e+00,0.000000000000000000e+00,0.000000000000000000e+00,0.000000000000000000e+00
0.000000000000000000e+00,0.000000000000000000e+00,0.000000000000000000e+00,0.000000000000000000e+00,0.000000000000000000e+00,0.000000000000000000e+00,0.000000000000000000e+00,0.000000000000000000e+00,0.000000000000000000e+00,0.000000000000000000e+00
0.000000000000000000e+00,0.000000000000000000e+00,0.000000000000000000e+00,0.000000000000000000e+00,0.000000000000000000e+00,0.000000000000000000e+00,0.000000000000000000e+00,0.000000000000000000e+00,0.000000000000000000e+00,0.000000000000000000e+00
0.000000000000000000e+00,0.000000000000000000e+00,0.000000000000000000e+00,0.000000000000000000e+00,0.000000000000000000e+00,0.000000000000000000e+00,0.000000000000000000e+00,0.000000000000000000e+00,0.000000000000000000e+00,0.000000000000000000e+00
0.000000000000000000e+00,0.000000000000000000e+00,0.000000000000000000e+00,0.000000000000000000e+00,0.000000000000000000e+00,0.000000000000000000e+00,0.000000000000000000e+00,0.000000000000000000e+00,0.000000000000000000e+00,0.000000000000000000e+00
-5.976004289329417007e-09,-2.034122851300220887e-09,-7.280470271302523621e-09,-3.107823169859222115e-09,-1.380939606368632805e-08,-6.957686074761844548e-09,5.523985141136002797e-08,-1.814170743131417258e-09,-6.336177094953016883e-09,-7.924000853036007411e-09
1.005148810917413916e-06,-1.410872161057894949e-09,-3.716304108543316894e-08,-4.693544177687579701e-09,-8.273779980080571146e-07,-8.121785569015221139e-08,2.501030583072950547e-07,-1.299327168065596534e-07,-2.591544927513517585e-08,-1.475403920206254927e-07
3.735924794417129035e-07,-3.171147636976794310e-08,-9.194735829268663693e-07,-3.094786871339207041e-08,-1.198548571997598718e-06,-6.764253309220107715e-08,2.250223293977648574e-06,-8.988799384592607872e-08,-1.290952476149254601e-07,-1.565084988586804386e-07
-4.132458471467456466e-07,-2.636508293940143471e-08,-2.922528630230042990e-07,-9.345765932902433278e-08,-9.892722869784321603e-07,-3.473839436320400511e-08,2.029390484467848270e-06,-3.693981501961690834e-08,-7.252127976489961430e-08,-7.059725590352353858e-08
-1.048038128622686480e-05,-2.378135081215104264e-07,-3.876653025835428427e-06,-7.616873583710456791e-07,-2.896132824009439247e-05,-3.039123607589945769e-07,4.677194224495636514e-05,-9.178249753513863144e-07,-5.892061079789099749e-07,-6.431353822178464490e-07
-1.315118901364916375e-05,-3.846773696957301008e-06,-1.036712506724886569e-05,-3.612878416842137746e-06,-1.057771949621316308e-04,-3.012797823353424520e-06,1.496022760446090547e-04,-3.530564292438763685e-06,-3.138186401583053421e-06,-3.165566370404597149e-06
-1.837137254983300802e-05,-2.645171147292130974e-05,-3.733449150139123789e-06,-1.180288794221002414e-05,-1.411850686040484650e-04,-4.330074842066157783e-06,2.279259165924650110e-04,-8.276433006872779098e-06,-8.126897199505630988e-06,-5.648021824868544553e-06
-3.200233345946127268e-05,-4.596490738407711879e-05,3.943383093955552551e-05,-2.447125250337913363e-05,-1.525154056627149395e-04,-1.217687302235845250e-05,2.749639541072006112e-04,-1.500749153530526325e-05,-2.291304301604556531e-05,-9.346478463414914552e-06
-3.648015003184928588e-05,-4.600643087022917752e-05,3.162776638036857054e-05,-1.643004673788424718e-05,-2.967666596007950013e-04,-3.332878836100078578e-05,4.863132676448691486e-04,-2.303406229495454097e-05,-4.220372180824579199e-05,-2.369117432027939666e-05
-4.685138553351437006e-05,-4.919773989297141148e-05,7.400201180748950281e-05,1.117941748082467800e-05,-3.570927813436466729e-04,-6.645516626404410405e-05,5.700137084456465128e-04,-4.314533764705702983e-05,-5.609344539093751676e-05,-3.635928166179066081e-05
-5.756080663982866716e-05,2.192732607031136510e-06,1.032617978190045725e-04,1.139811479787022849e-05,-4.800797276839839341e-04,-8.657431692567301676e-05,6.760960434998157824e-04,-4.125739020678032080e-05,-7.140426695211894844e-05,-5.607218031533645481e-05
-8.747920519230388352e-05,1.000418449414156486e-04,1.062523257981536041e-04,-1.619152001048170791e-05,-4.369730848718997155e-04,-1.114376875252836771e-04,6.379360988684919243e-04,-3.077177178990073391e-05,-9.563256994701373312e-05,-6.574443027117689569e-05
-1.406803977429535240e-04,1.204239768243121883e-04,1.307919834165000635e-04,-1.524878945420787764e-05,-3.470316706051764020e-04,-1.336208035339261761e-04,6.027676346457604617e-04,-3.479398686189090224e-05,-1.135425317350502016e-04,-6.906541495336697260e-05
-1.669061026720000294e-04,2.198241838386195133e-04,1.691240831756131685e-04,-4.593798247199977594e-05,-3.622064585610536660e-04,-9.688743628662382175e-05,5.212198182680108155e-04,-3.926533630602214498e-05,-1.240460866090423370e-04,-7.491868237550212192e-05
-1.476101415278876670e-04,1.301155511085479405e-04,1.792724962228008740e-04,-3.589684510933490580e-05,-3.480591472933253867e-04,-3.206358851660840619e-05,4.930364532955461461e-04,-2.688600565261914331e-05,-1.283329668708216233e-04,-8.357580565629635447e-05
-1.254856943342189677e-04,1.427141560648629467e-05,5.036167656023832862e-05,-2.723687055318416473e-05,-2.152252085970238096e-04,2.293908658547393721e-05,4.587287383357090760e-04,-1.953800180856184009e-05,-9.618963595393221230e-05,-6.262550584098755015e-05
-9.534574664282188588e-05,-1.818495310531139387e-05,-7.074621796789709854e-05,-4.092380405178867219e-05,-1.438494377451379736e-04,3.247544970187453075e-05,4.469589463472456426e-04,-1.341643645742800108e-05,-5.354259034994699731e-05,-4.342520972878841177e-05
-7.413421620625350815e-05,-1.828526375668346485e-06,-1.462420142142672281e-04,-3.081432416814293120e-05,-7.891229931816936367e-05,1.262223498499463171e-05,4.219073487140554725e-04,-8.989841500468243279e-06,-6.278693704649743461e-05,-3.082142486958230096e-05
-5.321338590577051484e-05,-1.864901994475986056e-05,-8.567622132792247194e-05,-1.668816355504800452e-05,-4.402322142470875690e-05,-4.641965154898301013e-05,3.145438582216466628e-04,-5.577297373430359282e-06,-2.917404889809138875e-05,-1.512284824293229502e-05
-3.118289168356163754e-05,-1.722163206722660499e-05,-7.439824700126013146e-05,-1.494729531358299442e-05,-3.421186163653123656e-05,-4.432183295098403634e-05,2.527645747552558072e-04,-3.837075521200716001e-06,-2.146312768986273644e-05,-1.118061089104591931e-05
-1.526543753149493181e-05,-1.039611684841752838e-05,-6.157601966093357454e-05,-1.056129225259620728e-05,-3.619161219917634204e-05,-2.096611779817436456e-05,1.788720537937737477e-04,-2.256303525162523047e-06,-1.561523238580474744e-05,-6.043921592013379133e-06
-6.349846461295499771e-06,-5.950737237342768740e-06,-2.208897338735149146e-05,-3.727624288908009274e-06,-2.194564593321890388e-05,-2.019353469705037713e-05,8.962420063472149108e-05,-5.223956935985782912e-07,-7.378778925710804718e-06,-1.466664010244972695e-06
-1.558103760641845188e-06,-2.155536896934050714e-06,2.032018656352730038e-05,-7.382729532529290385e-07,-4.665886719278783401e-06,-1.344308565487945476e-05,6.582894846715590636e-06,-1.961262508092441066e-07,-3.771785987040393442e-06,-3.742831874061683990e-07
-1.114427124180514716e-07,-2.677817271329790352e-07,1.816734017087074768e-05,-3.670371327009055715e-08,-9.135282246445897614e-07,-2.470767024037695023e-06,-1.303968496099934592e-05,-2.469122103351577703e-08,-1.214369878830083363e-06,-8.837070850439277148e-08
0.000000000000000000e+00,0.000000000000000000e+00,0.000000000000000000e+00,0.000000000000000000e+00,0.000000000000000000e+00,0.000000000000000000e+00,0.000000000000000000e+00,0.000000000000000000e+00,0.000000000000000000e+00,0.000000000000000000e+00
0.000000000000000000e+00,0.000000000000000000e+00,0.000000000000000000e+00,0.000000000000000000e+00,0.000000000000000000e+00,0.000000000000000000e+00,0.000000000000000000e+00,0.000000000000000000e+00,0.000000000000000000e+00,0.000000000000000000e+00
0.000000000000000000e+00,0.000000000000000000e+00,0.000000000000000000e+00,0.000000000000000000e+00,0.000000000000000000e+00,0.000000000000000000e+00,0.000000000000000000e+00,0.000000000000000000e+00,0.000000000000000000e+00,0.000000000000000000e+00
0.000000000000000000e+00,0.000000000000000000e+00,0.000000000000000000e+00,0.000000000000000000e+00,0.000000000000000000e+00,0.000000000000000000e+00,0.000000000000000000e+00,0.000000000000000000e+00,0.000000000000000000e+00,0.000000000000000000e+00
-1.529457454297331727e-08,3.889223599768679031e-07,-6.734191999163452666e-08,-2.349689622628355335e-08,-3.373488748608548491e-08,-2.096908310659532184e-08,-1.158662976988335800e-07,-6.656868225631496399e-09,-8.448589563177086194e-08,-2.107593706705946214e-08
1.327166449637829919e-06,7.927965993466336254e-08,-2.835290894544471283e-07,-8.362398751856904263e-08,-3.096077101692555882e-06,-7.204309682890781478e-08,3.479129345767847549e-06,-4.211493397891353538e-07,-3.374961567988279616e-07,-5.916566832578989572e-07
-8.710690293731055217e-06,-9.366468489399072386e-08,-3.800266805653266993e-06,-2.737224631973964553e-06,-2.460536401764518600e-06,8.757647995184927991e-06,1.151662926661337981e-05,-1.376215450965315576e-06,-7.108101596265688443e-07,-3.848688331896285281e-07
-4.692431958382757513e-05,-1.673049805192374785e-06,-9.241202778016924828e-07,7.015567530603047778e-05,-5.237167283794344561e-06,-2.804631014233631447e-05,2.046326030570487511e-05,-1.676821152847009071e-06,-5.042408250558747253e-06,-1.094739115377336436e-06
-6.300540074129333675e-05,-4.754341048218389854e-06,2.832958431898757759e-06,6.045054241442514184e-05,-5.014339712319431855e-05,-2.227241775736059836e-05,9.569701149850255099e-05,-3.812141130181214875e-06,-1.119514653479434941e-05,-3.797668009784512991e-06
-7.958568773654362211e-05,-2.767882865974493657e-05,6.252990028105369640e-05,9.324857275768619455e-05,-1.173612104079614838e-04,-4.665189066243991662e-05,1.769828521065066728e-04,-1.957652073383706615e-05,-3.207007116827562815e-05,-9.837115776443934058e-06
-4.228380474576399968e-05,-8.521554561604960431e-05,1.788477206542671001e-04,1.150522385533961079e-04,-2.480415190794494056e-04,-5.969694001039341653e-05,2.695854581497820839e-04,-4.897449563381920605e-05,-5.696144807752400385e-05,-2.231166419444577788e-05
-1.081420984648871048e-04,-1.463155099410665030e-04,5.137210997588831981e-04,6.532753762665413980e-05,-3.854843910443186278e-04,-9.986286600731448452e-05,3.814642017119553312e-04,-7.251064534082082966e-05,-1.054532541855481470e-04,-4.274407411353773803e-05
-1.197810632148780315e-04,-2.382894814953150629e-04,6.373638700181031907e-04,1.566037441468688858e-04,-5.202378590563260744e-04,-1.057127112025310378e-04,5.388954596822455659e-04,-1.172199568148404289e-04,-1.535163394362498040e-04,-7.810566262707790757e-05
-1.109873747241234889e-04,-3.169806872383263774e-04,8.007773682991528065e-04,4.162744707057835472e-04,-6.529679985341523473e-04,-2.068605399038434564e-04,5.804468194838641008e-04,-1.685589613444373185e-04,-2.226631407186467290e-04,-1.184799560252716315e-04
-1.592200694486490718e-04,-1.858570896894184824e-04,8.624526147491842721e-04,6.193246373630219336e-04,-8.682253217417995736e-04,-1.778561943581029889e-04,5.102252879379232890e-04,-1.472795686300470985e-04,-2.921853875787168778e-04,-1.613789086033957270e-04
-1.050367998217203444e-04,-6.330684310626217995e-05,9.140764916333273590e-04,5.887116297784579077e-04,-1.017038064261783234e-03,-1.919677896888642135e-04,5.924183028935189064e-04,-1.538075595210487690e-04,-3.424435090625092696e-04,-2.216058588431164334e-04
-1.591822661253274312e-04,-4.228199024635618392e-05,6.776241762814010864e-04,7.889826527803074857e-04,-8.768061119194712431e-04,-1.018379068972035957e-04,6.063226000193047086e-04,-1.645382921301330340e-04,-4.449761426367452189e-04,-2.833067191257749207e-04
-1.925078895729410717e-04,1.341703152663879176e-04,4.558154777020735756e-04,7.364382656109977809e-04,-8.300203653856604198e-04,5.080262845162742059e-05,5.853836305161568389e-04,-1.662279457727323668e-04,-4.436435210755597836e-04,-3.302105957403500070e-04
-1.934017822366305051e-04,1.152237169924503471e-04,4.532457301077678241e-04,6.357775837339256931e-04,-6.995631579040812462e-04,1.104756082387808495e-04,4.903323109090386477e-04,-1.400903173389368619e-04,-4.742139212408547815e-04,-2.977857712614632329e-04
-2.450498683649921135e-04,-1.364549785552237140e-04,1.918748838773200486e-04,5.822151262769445978e-04,-5.345423663801817738e-04,3.099693030414173178e-04,5.901125834113087965e-04,-1.112906623516947044e-04,-4.269791454607939829e-04,-2.198548754941077518e-04
-4.188450100322107313e-04,-2.242711070346949174e-04,-1.910255419808236323e-04,4.533562750001043679e-04,-3.604865124298462539e-04,4.716350279662369447e-04,7.700422849887645456e-04,-9.382654629455250167e-05,-2.732216948705643868e-04,-1.333571753124128249e-04
-4.166029298276196515e-04,-1.694671254906681183e-04,-3.239249997237027040e-04,2.891943288284762174e-04,-1.371042059065967120e-04,4.217326268481480078e-04,8.293850926221769384e-04,-6.403475125210702210e-05,-3.082921895064512710e-04,-1.208858465916560099e-04
-3.099908215822492325e-04,-1.502932378361609956e-04,-3.537679011815312029e-04,1.977851693727108616e-04,-2.364598482003672634e-05,3.843469652584783811e-04,5.973335218070882288e-04,-4.831914396110021173e-05,-2.012105580870099885e-04,-9.223800897018912752e-05
-2.578603194616632872e-04,-1.230789752092802081e-04,-2.814486319550904775e-04,-7.219343806296873046e-05,2.555636400366860099e-05,3.022807134867757230e-04,5.733035986493588681e-04,-2.846520521515439863e-05,-8.806334043674864315e-05,-5.003076579889867344e-05
-1.613170116274900007e-04,-9.803232851043554199e-05,-2.406898487530247707e-04,-1.218924446060791982e-04,1.414401304458973304e-05,1.636834970211295461e-04,4.933540383301468837e-04,-1.241303207795609499e-05,-1.664800860010512564e-05,-2.018887422077533418e-05
-8.060982550480019163e-05,-6.344711492122165884e-05,-1.702941389184726517e-04,-6.236303666302703773e-05,1.166567173081792266e-05,-2.214104449007617419e-05,3.816902752776495924e-04,-5.454714430733636082e-06,1.992068680752409043e-05,-8.966758887660447580e-06
-3.545397849803171996e-05,-4.333274936861148633e-05,-4.656782710020598864e-05,-2.077377700107910775e-05,-1.294161469573818196e-05,-3.104151004977674991e-05,2.012239652100347763e-04,-1.830966822556236851e-06,-6.508257084640689557e-06,-2.773284589394904216e-06
-1.062914755390448003e-05,-1.030060034377132787e-05,9.295578751778589392e-06,-1.482132068722893951e-06,-1.391793733559858907e-06,2.251571481056926670e-05,-5.454869925712206611e-06,-1.446721140362886153e-07,-2.055694326409171153e-06,-3.523834962316385887e-07
-2.336618047563181755e-06,-1.326379509273792192e-05,-8.649197485373662028e-07,-8.050608651028772055e-08,-3.941167853622241329e-07,5.202908109391146544e-06,1.530610019714940778e-05,-1.183661190500735678e-08,-3.529696980588632747e-06,-2.751895333592738532e-08
0.000000000000000000e+00,0.000000000000000000e+00,0.000000000000000000e+00,0.000000000000000000e+00,0.000000000000000000e+00,0.000000000000000000e+00,0.000000000000000000e+00,0.000000000000000000e+00,0.000000000000000000e+00,0.000000000000000000e+00
0.000000000000000000e+00,0.000000000000000000e+00,0.000000000000000000e+00,0.000000000000000000e+00,0.000000000000000000e+00,0.000000000000000000e+00,0.000000000000000000e+00,0.000000000000000000e+00,0.000000000000000000e+00,0.000000000000000000e+00
-2.666220139419025690e-09,-2.747199719317513314e-09,-3.617566155145229717e-08,7.504571772960797725e-08,-4.108404221936222791e-09,-1.487344066159217950e-08,-3.282908426922683006e-09,-1.898156302347073339e-09,-7.229212937856190181e-09,-2.064513768764683076e-09
-9.200695233694521567e-08,1.320320964501290731e-06,-8.260071263809201660e-07,8.206203632032384540e-07,-4.965619175192431873e-08,-6.126469163687771875e-07,-8.326304310004232388e-07,-1.571404752091940220e-08,3.169813066064723043e-07,-2.926096895109015684e-08
-2.566715753715859728e-07,-6.144026580807031315e-08,-3.957612574895351200e-06,1.295126053696461042e-05,-1.071680780536793573e-06,-4.698199431456061514e-06,-1.922291549032318486e-06,8.444479519644198551e-07,-1.316357080478965115e-06,-5.114552313498719488e-07
-1.463773053291987170e-05,4.276980586492565298e-06,-3.317202745025190383e-05,5.848193677599457593e-05,2.257488733521934761e-05,-3.677925419258483582e-05,1.335101025678950383e-05,-1.961752490115843012e-06,-9.768887343733351078e-06,-2.365162944890180458e-06
-8.538497523335053117e-05,2.542375451025028548e-05,2.705323937125841727e-05,2.495342857992079622e-04,2.050683327808591595e-05,-1.613681859935791035e-04,6.729362987108678552e-06,-2.650707532349651994e-05,-4.149752142696443082e-05,-1.448971796852080023e-05
-1.048503928380112668e-04,-9.018300048516146174e-06,1.592242758897564805e-04,3.781860876483718239e-04,-5.342734748225782003e-05,-2.390557984491749755e-04,1.147769895690854983e-05,-3.152026032937332975e-05,-8.817762959768937867e-05,-2.283833375001359845e-05
-8.798907174705273052e-05,-8.433293661631959578e-05,2.224608211743174632e-04,5.263413834769904449e-04,-8.975220391411918238e-05,-3.023675597525145764e-04,7.191953491617220247e-05,-7.619071016249800868e-05,-1.294606501763547011e-04,-5.062860719862059746e-05
-7.003221045312216990e-05,-1.409358036401002858e-04,4.181361916216328367e-04,7.322825640916858034e-04,-2.674578014119958721e-04,-5.012665541890086972e-04,1.920461049791338088e-04,-1.437890103662600304e-04,-1.148242922159730550e-04,-1.041591884159909968e-04
-5.324265876169703016e-05,-2.511203945588642806e-04,8.738013081968255954e-04,7.564179075125480791e-04,-4.451191404628288190e-04,-4.578185625627353549e-04,1.424875762624705825e-04,-2.442005156321328842e-04,-1.271985614615084954e-04,-1.940069585320752582e-04
-1.029858936498412244e-04,-2.391682323086788289e-04,9.338197163624946178e-04,9.543559306606837645e-04,-7.017920034409864472e-04,-2.935324211132593294e-04,2.316285194651782823e-04,-3.569114443970834347e-04,-1.530846747603460136e-04,-2.723294968181653574e-04
-3.742851748380143041e-05,-2.764601277292062461e-04,1.061688673251458574e-03,1.102182233794576308e-03,-8.037039411756668203e-04,-1.249550403464525232e-04,-7.164364751389873279e-05,-4.366592793750199118e-04,-4.728973043345687042e-05,-3.657306229885303210e-04
-1.407005035051445922e-04,3.886218000750288977e-05,1.102449377556030414e-03,1.136080386095716195e-03,-9.092269439182987332e-04,-2.139399065038346832e-04,-1.911573315721422058e-04,-5.072089693046113882e-04,1.953452710694510998e-04,-5.105035599246671120e-04
-1.835888138993914168e-05,4.460879245642042357e-04,8.126393344347772720e-04,1.162383889193910899e-03,-8.703192521090391976e-04,-4.101726639534883151e-04,-1.521611304176804754e-04,-5.837749108852142727e-04,2.404573175289615578e-04,-6.267816269664887915e-04
-9.109388158511497115e-05,5.260157757823544916e-04,7.382254919922596635e-04,9.574210893286640069e-04,-9.560812697713183582e-04,-5.266123088284173804e-05,-1.676484493444802221e-04,-6.477760201294406215e-04,4.869432236834223601e-04,-7.933447290735036895e-04
3.834340049814478191e-05,4.828496910083503505e-04,4.437612485835257074e-04,8.545590494453271339e-04,-9.409357048731446099e-04,4.511691769588911877e-04,-1.933414612822289169e-04,-6.613730015863413404e-04,4.512154098770980643e-04,-9.262478086296233818e-04
-1.435992021723217493e-04,2.325592387030654999e-04,4.069707174510650712e-04,7.904297223283051786e-04,-6.793171878363520782e-04,5.447576839983824448e-04,1.781984484199007027e-04,-6.266133868985427572e-04,2.725863303663954361e-04,-9.759723643598980196e-04
-4.936311619089321206e-05,-2.010567491523767681e-07,3.097416365873609375e-04,5.078179197820359425e-04,-4.959280312865908032e-04,6.306761203949143519e-04,4.708209499810835389e-04,-5.222421638462744573e-04,-6.136756599672687368e-05,-7.899546926757558844e-04
-2.103615716242926599e-04,2.358668337784888117e-05,1.490550538184988468e-05,5.521489432258097673e-04,-3.653566805360300928e-04,6.350761877893560487e-04,5.299741180345428652e-04,-4.202128146514911709e-04,-1.496870101493035898e-04,-6.100733608482907400e-04
-3.055852654202036471e-04,3.224778702476034133e-04,-2.925678655256586103e-04,2.250811427513895618e-04,2.188317622312045381e-05,2.932828709325165507e-04,7.565420009268099743e-04,-3.064500759882696538e-04,-2.103793766694224995e-04,-5.042844774778862480e-04
-2.806971603577308912e-04,3.973002078144750003e-04,-3.971947366140612706e-04,-1.750546833523999022e-04,2.537807985085106148e-04,9.729719452025889601e-06,8.975130993208712540e-04,-2.255923920765528286e-04,-1.192951031721460403e-04,-3.604897495229914938e-04
-2.786032807483417180e-04,3.980765627001909418e-04,-5.642880442920455378e-04,-3.805066475989158097e-04,2.689632237494621477e-04,4.100983528702208526e-04,8.793301115496002848e-04,-1.433345390059685546e-04,-3.149348527515183284e-04,-2.748008864726828688e-04
-2.069244906345776565e-04,2.274840831062519074e-04,-5.848944503352784818e-04,-3.443477334430979780e-04,3.242634228156083534e-04,3.913363396655453056e-04,8.269970029006355663e-04,-9.549840859789518260e-05,-3.795757572785766489e-04,-1.588400081986163909e-04
-1.947955534931486606e-04,8.385725727188457577e-05,-4.076272621247425715e-04,-3.449428563171162200e-04,2.840564746995625687e-04,4.318114428091323958e-04,5.636758614461424193e-04,-4.372872989051326901e-05,-3.008775763005798074e-04,-7.142905810062223746e-05
-1.710175893167725791e-04,-1.272947806376882173e-04,-1.975190231013572570e-04,-8.736733286431723770e-05,1.659352658771155742e-04,3.629350662907645381e-04,1.408667229214414758e-04,-1.648514855973415099e-05,-4.259832237794957245e-05,-2.745485823150208907e-05
-5.770108048467616994e-05,-7.708267500126951067e-05,-2.515397284925403041e-05,-9.477896740303682442e-06,1.639363542003395268e-05,1.175252846772473621e-04,2.377656187561011974e-05,-4.092532581702855782e-06,2.327873636537226260e-05,-7.466060681057347057e-06
-7.102947775143175231e-06,-8.039580410144004020e-06,-3.894500856212960469e-06,-5.976813603052649029e-07,-7.952740460484649299e-06,1.337670113403084921e-05,2.379480747083658883e-06,-8.267358130331070856e-07,1.463113488539060649e-05,-1.973130091181966605e-06
-1.271690520850826551e-07,-3.418861173399111413e-06,-2.774359629272678170e-06,-7.805815451366030004e-08,-1.838430739068726836e-06,-1.523601716581500601e-06,1.012721680505286679e-05,-4.625228315888782699e-08,-1.724490673719758582e-07,-1.480349896012406635e-07
0.000000000000000000e+00,0.000000000000000000e+00,0.000000000000000000e+00,0.000000000000000000e+00,0.000000000000000000e+00,0.000000000000000000e+00,0.000000000000000000e+00,0.000000000000000000e+00,0.000000000000000000e+00,0.000000000000000000e+00
0.000000000000000000e+00,0.000000000000000000e+00,0.000000000000000000e+00,0.000000000000000000e+00,0.000000000000000000e+00,0.000000000000000000e+00,0.000000000000000000e+00,0.000000000000000000e+00,0.000000000000000000e+00,0.000000000000000000e+00
-4.497676555430851271e-07,1.118958063858558971e-06,1.059566126103779331e-07,2.575238313223619125e-06,-1.950609047478916828e-07,-2.376023925820778381e-06,3.854449981568930681e-07,-2.960250129964954538e-07,-7.672193239366419819e-07,-1.015011648045566829e-07
-3.849413350285809543e-06,6.912309980771272701e-06,2.573411507181348193e-06,7.931965787538145397e-05,1.472144817789107014e-06,-3.764949116223132727e-05,-2.617914343132113930e-05,-5.992285994722709487e-07,-1.807630941398458114e-05,-3.923938223827907879e-06
-4.573369212033923494e-05,1.033790119230499945e-05,1.691802358719918971e-05,2.494825308019840530e-04,4.401851114609581808e-05,-1.911476487659443323e-04,1.095544867404999858e-06,-9.923659096674191871e-06,-5.577313118991380716e-05,-1.927438042211750886e-05
-1.493587280791080867e-04,5.027561435694262676e-05,1.006050952257136566e-04,5.723590933166403712e-04,1.001014120864600441e-04,-3.636319701328624460e-04,-1.372313769100345698e-04,4.257808775569231176e-05,-1.431515044086420507e-04,-7.254572321080312441e-05
-1.432573129910339295e-04,-3.420788082039223659e-05,2.808131291819284834e-04,7.974238913924160555e-04,1.048230557814519494e-04,-5.308644001431351298e-04,-1.004609898290880485e-04,2.339770852905719882e-05,-2.270531487220303331e-04,-1.706140523791734032e-04
-1.581413229334663610e-04,-1.978653927368715379e-04,4.967336808395220920e-04,8.433180832017346919e-04,5.843242226098979068e-05,-4.374632407756219024e-04,-7.989205184996740782e-05,-5.985683117853629414e-06,-2.329980798322758481e-04,-2.861384150561900640e-04
-1.532056543168709023e-04,-4.691328964323644626e-04,8.061209777319071693e-04,7.245604987250565477e-04,-3.522381990732071895e-05,-3.058049457907119849e-04,8.864748089077053011e-05,-7.308185371379774157e-06,-2.503124933016648550e-04,-3.983409622274219387e-04
-1.406796416266751842e-04,-5.408403438019887283e-04,8.998754227035829240e-04,7.058392949424272412e-04,-8.068581167609687648e-05,-1.969061401536233413e-05,-1.428588032304325350e-05,-1.134234304301141464e-04,-1.584377162366102374e-04,-5.376712795361187356e-04
6.066191896318036685e-05,-4.414215947376627647e-04,9.093588119177846082e-04,7.483442905006164715e-04,-3.675539328317940237e-04,1.797850636121932724e-04,-3.820617702850775168e-05,-3.512502404320971372e-04,-2.739582399534835509e-04,-4.257599000102307309e-04
8.481977525264516318e-05,-3.675210449489447876e-04,9.913591206610074778e-04,5.866835456365869722e-04,-5.110064517794070090e-04,2.268753386683319568e-04,-6.244613790961422647e-04,-5.970453046331001450e-04,2.259771297112630876e-04,-1.568072947224019380e-05
7.001167608341595395e-05,-6.072744033787106152e-05,9.229545083081144852e-04,3.699041150636667120e-04,-6.147937732814184788e-04,-1.315351546534250118e-05,-4.987550333595120160e-04,-7.529419736647345856e-04,5.594975020612883224e-04,1.800393459239435040e-05
4.858424770508502672e-04,3.033363245085377415e-04,8.786798153748857140e-04,3.375853200358291104e-04,-7.759705057061462964e-04,-1.467262525665066807e-04,-6.103415450743563406e-04,-9.779592899632524438e-04,4.649581181196928083e-04,4.059553822046404667e-05
6.218078541726641774e-04,3.689864477065573950e-04,7.798365995736165641e-04,1.816856714493237464e-04,-3.823976279584248203e-04,-2.296565615452167777e-04,-3.357138470572889103e-04,-1.107820149265983066e-03,5.495827940086091441e-04,-4.463111810838565853e-04
5.967442403858732800e-04,4.226955835101367520e-04,8.110042695511831753e-04,4.362496011405429873e-04,-2.735775344894135572e-04,-2.539962898362713422e-04,-3.857534122778609573e-04,-1.155558416630907397e-03,4.754199720049829408e-04,-6.732280133582675078e-04
5.334072699957911976e-04,-4.508247576556778397e-05,9.977864674834751799e-04,5.646405247021915683e-04,-4.160889966699769354e-07,1.676413762684705671e-04,-3.516843129337227742e-04,-1.173856241929751437e-03,5.509822686827434710e-04,-1.243418787506959207e-03
6.835725772015778957e-04,-3.010717448117271908e-04,8.931362376389754415e-04,2.450277735299908580e-05,3.693567822846213913e-06,4.162493459795617778e-04,2.013284523333023934e-05,-1.203452977772831705e-03,6.466496165856796575e-04,-1.183412245230412805e-03
5.685612531442418762e-04,-1.887051371577533318e-05,5.215161068953392317e-04,5.451532527534553349e-05,1.708539408971991005e-04,3.811369058172220294e-04,3.919597896750746176e-04,-1.076359186371121050e-03,1.208831247462474449e-04,-1.114196746363775060e-03
2.245461244503300609e-04,2.631459639389674941e-04,4.203013201335034735e-05,1.378533022858011670e-05,3.331646034517801334e-04,1.360352303796804826e-04,6.596764652679978393e-04,-9.688853531236482197e-04,2.305338992269973040e-04,-9.340323958340345000e-04
-1.965378878775331792e-05,5.351235489778300792e-04,-1.456261800966498240e-04,-3.478393511605351813e-04,3.210883935408932592e-04,4.570525002514052963e-04,5.880125285681558856e-04,-7.906294793976610495e-04,2.422376502109130163e-04,-8.397658221065977709e-04
3.652010837255901025e-05,7.745038364448281762e-04,-2.445639774927664675e-04,-6.225198651960449966e-04,3.923012315307513958e-04,4.542585699548584016e-04,5.330669802930751303e-04,-5.259343298949118806e-04,-6.365305386798729577e-05,-7.339795001443596848e-04
-6.509240120219485855e-05,6.454737613518152835e-04,-4.442697192734044662e-04,-6.672246357306306887e-04,6.631806042839496779e-04,7.346414792881388696e-04,4.484256767017663625e-04,-3.394613589969086380e-04,-3.517288590009398142e-04,-6.239445474215934897e-04
-3.178622267502313574e-04,3.509760451934411884e-04,-5.319152723505600651e-04,-6.064633679214593686e-04,8.216277754202664209e-04,8.473800225370879810e-04,4.513187295759465631e-04,-1.995550550591068738e-04,-4.104466248320528718e-04,-4.050600258133331888e-04
-3.392675431750395904e-04,3.588804773272387356e-05,-3.186088383068677262e-04,-2.301841440895502182e-04,3.485536346614170975e-04,7.510886193073315620e-04,1.923943539399588587e-04,-7.255597764214199107e-05,-1.820293171602384763e-04,-1.852788352675932744e-04
-1.700529854027961897e-04,-1.338267944323978252e-04,-7.603233004912508103e-05,-4.683476485638099506e-05,2.445723518975518649e-05,4.286923434497408097e-04,2.304806770490087055e-06,-2.190206245812989323e-05,4.948906271030891022e-05,-5.629451092146527141e-05
-4.480611838824672007e-05,-2.403251767597553858e-05,-1.609051583125761816e-05,-6.434853654204973310e-06,-2.052194106602463222e-05,1.214740803315962159e-04,1.953237292850751802e-05,-8.345268589171773034e-06,-1.240959898322414436e-05,-8.365639071998459526e-06
-9.923378503783333727e-06,-4.148333889037275546e-06,-4.087300931520755764e-06,-2.515411130316133361e-07,-4.716316299564849318e-07,9.584520717455729950e-06,1.497578677893555206e-05,-2.906813739229885196e-07,-5.270579828726678117e-06,-1.168602264121608337e-07
0.000000000000000000e+00,0.000000000000000000e+00,0.000000000000000000e+00,0.000000000000000000e+00,0.000000000000000000e+00,0.000000000000000000e+00,0.000000000000000000e+00,0.000000000000000000e+00,0.000000000000000000e+00,0.000000000000000000e+00
-5.848297406989385997e-09,-5.016660609815094891e-09,-2.359148708055449328e-08,3.634090410763484381e-07,-2.385426144749107222e-09,-2.961831493948065934e-08,-1.486352683279024688e-09,-1.093792492050403817e-08,-4.229265271783027554e-08,-2.422319245731462305e-07
-1.642958200417718293e-06,-7.724875900583464002e-06,-5.492921335261465049e-06,1.018344564591417732e-05,-3.161627787914802400e-06,-5.056241757244565476e-08,-7.701364743112628041e-07,1.953444161096733753e-05,-5.399726312758901599e-06,-5.475078828061436318e-06
-8.626504263374671703e-06,8.089793916272429921e-06,2.001549941688493306e-05,1.707353790855200659e-04,-2.018219733763825590e-05,-1.261557914654883635e-04,-4.282316965559892932e-05,8.102291506440402219e-05,-5.307224775045565847e-05,-2.900367701052592112e-05
-8.058612227721423686e-05,5.817125964395334332e-06,1.078929071383899480e-04,4.328345212403529596e-04,9.401556760528335878e-05,-3.301460892314789426e-04,-5.284189768379690964e-05,4.615771623716610544e-05,-1.133361590222856151e-04,-1.098075699708120850e-04
-1.199708680866685121e-04,-8.266648642789299845e-05,2.422241142539447692e-04,7.057675550449740058e-04,2.452407475682929984e-04,-4.234039601179107244e-04,-1.808691742402092080e-04,1.467341469189868046e-04,-1.948784054154776917e-04,-3.381776694980396874e-04
-1.453293517622997123e-04,-1.853612548062624776e-04,4.657424533874243927e-04,8.798682585878148023e-04,2.457241348200155649e-04,-4.688721615457036324e-04,-2.602205106084033498e-04,2.818618513576752254e-04,-2.983436569129427839e-04,-5.150697625173180022e-04
-1.748386148365830358e-04,-4.145734681136443675e-04,6.440361299113778366e-04,6.253205394737540359e-04,2.259628362519124057e-04,-1.957862790059848048e-04,-1.413065001985320407e-04,3.594111934837709074e-04,-2.205035056137543282e-04,-7.077223313523201866e-04
-2.615845021577343208e-04,-6.871194340421434054e-04,6.156797035563302180e-04,5.657223396330511231e-04,8.067262330524373887e-05,9.934147769549331970e-05,-1.354810894048000638e-04,4.808399219588911709e-04,-5.140068734812733627e-06,-7.529309718095176943e-04
-3.405525429502743008e-04,-8.484496863546161886e-04,6.419836170038083385e-04,7.488635214885472260e-04,-1.573555191711720365e-05,2.454694040416399931e-04,-2.847659817495502279e-04,3.829240826149930073e-04,-2.798269565952861992e-05,-5.017541665179071908e-04
-1.817115868803386717e-06,-6.816773713022830812e-04,4.961011653433958614e-04,7.020464833415733692e-04,-3.176045577153086452e-04,2.866343828265227275e-04,-5.942193356640721640e-04,4.222188690802980448e-04,-1.023490870204972860e-04,-2.093334330208244888e-04
5.690326915228472951e-05,-4.627731844441723740e-04,2.046178822313989747e-04,4.014955141287145676e-04,-6.744796954152378369e-04,2.988110141602314820e-04,-6.014373936777219539e-04,4.091085185621755544e-04,1.443357122012615002e-04,2.234183631010641300e-04
9.931132024707556055e-05,-4.041083469695220436e-04,1.881577105904176650e-04,3.637359325747539242e-04,-7.934026696656195244e-04,1.942349463781231904e-04,-4.978911718044609375e-04,4.583725329468365731e-05,4.005741514455767862e-04,4.035508739089733684e-04
4.614127671571849115e-04,-3.375904432886176441e-04,3.245276169494302012e-04,6.973543518500195703e-04,-1.003426291925937604e-03,2.925982065035954933e-05,-6.962192956351260630e-04,-4.229705862718084416e-04,1.459655945970298049e-04,8.016864659174699915e-04
4.692760377707197363e-04,-4.189047860162177701e-04,3.840321390200485911e-04,4.926300540145699212e-04,-1.108396363511176663e-03,2.700773864541055019e-04,-5.969527720200525816e-04,-4.996670527176362174e-04,1.397294580647655108e-04,8.681758989408718289e-04
3.858056565035368870e-04,-6.655631703480392606e-04,3.946502032764328746e-04,5.530374796896122885e-04,-1.102113588499464055e-03,-6.741015332552956630e-05,-4.666320733338098639e-04,-3.796590270693621242e-04,7.014773162879807704e-04,6.464073568186417922e-04
5.985262613384628554e-04,-7.903204522472723551e-04,3.705848539517823080e-04,6.528965443431484963e-04,-9.109330528343051285e-04,-9.415876512541224846e-05,-5.953815000019032407e-04,-2.749317898896030672e-04,4.016108828141300656e-04,6.421070176509731820e-04
7.791112298359307523e-04,-7.960230782355395525e-04,1.881919755033916754e-04,3.701679552208701437e-04,-6.956801313383171280e-04,8.549122598223140711e-05,-4.624867058365368048e-04,-3.279523967203233745e-04,3.350585759649210506e-04,5.241213496233736602e-04
7.824073675886619207e-04,-3.084676773565425321e-04,1.223459844829913258e-04,4.972403736044409255e-04,-6.495723623357865448e-04,2.723874309775608420e-04,-4.310708331124991043e-04,-5.512388770135126037e-04,-1.257696336337522870e-04,3.917382267984387354e-04
4.867623466308705583e-04,-6.091534867787241138e-05,-1.265004948390377861e-04,-4.100159952611514305e-05,-1.886023249015046340e-04,4.122889442291876433e-04,-2.767078302640637233e-04,-5.315811877199075894e-04,4.093460577913343203e-04,-8.308856272289143804e-05
3.133660811882872481e-04,3.433549110603578854e-04,-2.687791477191141991e-04,1.754452353977552754e-05,-5.214385822609153765e-05,4.158282418832019755e-04,-2.048757995998631073e-04,-4.648798772030959337e-04,2.388701127665821997e-04,-3.382851876900387134e-04
5.273741240598976048e-04,4.011868214787845093e-04,-2.956394668173034472e-04,-1.803642595016922393e-04,2.844555697737612392e-04,2.732132888096256980e-04,-1.537624513521160783e-04,-2.570972479065439481e-04,8.513140161861455378e-05,-6.844977801630270113e-04
4.477216261895524589e-04,3.185559906796636177e-04,-4.915360005217445311e-04,-5.821857397531512426e-04,9.319435767176093965e-04,7.287444549789798666e-04,-9.747077423178428864e-05,-3.155901166121780630e-04,-5.176941844833856608e-06,-9.350060756021145742e-04
-1.480218917990417564e-04,1.281275323751753176e-04,-7.651834944133379703e-04,-6.703989324690253892e-04,1.136924063434412982e-03,1.249760345235734682e-03,-3.007220383380031196e-05,-3.462254307547339379e-04,2.360385680667145911e-04,-7.909485558420981284e-04
-5.513827316867260736e-04,-1.098538156946598815e-04,-4.209764916423562641e-04,-3.393225152041019028e-04,4.538429106429597306e-04,1.606606530496074593e-03,-4.550318204345342622e-05,-1.868172476602538606e-04,4.413691705740940699e-05,-4.507303742648942390e-04
-3.828562801712038317e-04,-1.584541555920481544e-04,-1.209938824635031079e-04,-1.011276840217625942e-04,7.024030737502917523e-05,9.452825979887382593e-04,-6.554860437702218681e-05,-8.621911737959764158e-05,7.588703643336320334e-05,-1.762102177919913052e-04
-1.520210873244059395e-04,-2.233479523902469631e-05,-2.129396326367502936e-05,-1.301901644310519538e-05,2.266773331109124754e-05,3.347453817892851445e-04,-2.876824957807336001e-05,-2.742733464077347941e-05,-4.370794893303313078e-05,-4.884071967828623723e-05
-3.345736648207305681e-05,-5.902580469993017612e-06,-3.845707069695666888e-06,-5.946353022257090159e-07,-2.126067070274406108e-06,4.560914539665575769e-05,1.288469811542790718e-05,-1.694598163129968789e-06,-7.146029300492015863e-06,-3.726859654199883070e-06
-2.067794526439793207e-09,-1.518692155798559377e-09,-2.856070198535234056e-09,-8.996528201296926140e-09,-6.532475150193252006e-09,-2.673963905229484367e-09,-1.975488685258626294e-09,5.735786934898222411e-08,-3.586425672344977561e-09,-2.715043085388549973e-08
-4.963963891088184833e-07,-5.158776628157668174e-07,-1.276740381250960869e-06,1.521971383877617669e-05,-5.895471898687890967e-07,-1.765001420857911290e-06,-1.249025887627287419e-07,2.080363203601765717e-06,-3.589052190567529939e-06,-8.942559219145439076e-06
-7.784084958136851305e-06,-6.030999144258014505e-06,2.965129207247132578e-05,-1.229726595740029766e-05,-5.379773636729101620e-06,-1.874328538836639142e-05,-4.371613427438839616e-06,5.981182632807223188e-05,-1.339932725244735616e-05,-2.145676863576673503e-05
-2.111480840091337069e-05,-1.003485973475073811e-05,5.527077154721143264e-05,1.849487277467634237e-04,-8.410386064608312205e-06,-1.730150954657228067e-04,-7.809236786987522458e-05,2.071556409197114457e-04,-5.572228274327530506e-05,-1.009853399345405007e-04
-1.180184743871075389e-04,-2.320157090156063515e-05,2.718374904046439019e-04,6.984927934534921386e-04,1.014735474304653340e-04,-6.139872508560041296e-04,-7.691569326823558873e-05,1.813770635023571355e-04,-1.042594325496709595e-04,-3.167984728283796108e-04
-1.344722110957479605e-04,-1.874318127928980377e-04,4.079716545465135891e-04,9.014240309133662215e-04,2.917732105272014659e-04,-6.151684174098651656e-04,-2.009049212142547129e-04,3.598186142248310749e-04,-1.694438398011852956e-04,-6.535663078979607726e-04
-1.537592018251997847e-04,-4.007485666525356909e-04,6.769984589453509598e-04,7.337321102164733868e-04,1.740660567590829311e-04,-4.183687873448937804e-04,-3.528765872678594649e-04,6.395988313014824150e-04,-1.091140196345872089e-04,-7.895282944973127737e-04
-2.615418873478252181e-04,-5.236409315590254696e-04,4.856317553510381053e-04,3.677602735953459392e-04,1.256891613198579801e-04,-2.688332049429137063e-05,-1.993698962922135927e-04,8.099078105580714100e-04,1.507242993253954182e-04,-9.282772644563536558e-04
-4.188639940302833287e-04,-9.023767251525023712e-04,4.592073252336343453e-04,2.093037194634684683e-04,-7.840837614144512450e-05,5.122523183880904564e-04,-2.729247032122383496e-04,6.969172885257638502e-04,3.563254559109498899e-04,-5.614323089854400452e-04
-7.787509251593022859e-05,-9.696941826166008806e-04,2.021267582922202572e-04,3.097898892504961400e-04,-2.288242955755676869e-04,3.986176760744279224e-04,-4.205334780143929951e-04,8.559796676344431574e-04,1.427993035799579786e-04,-2.123862461090516587e-04
8.704165055228108093e-05,-9.056745347150774216e-04,7.167398016287617260e-05,1.791082590046925104e-04,-5.472634565172903144e-04,5.568818952418747286e-04,-6.176543612023108242e-04,9.650098224282055784e-04,1.413337199016423103e-04,6.954302514310875397e-05
1.569531491788552901e-04,-7.968444954179011502e-04,2.708645266640182241e-04,1.815414520381264016e-04,-8.481701181573549726e-04,5.063904645445705711e-04,-5.082270761465628893e-04,8.942238632875022276e-04,-1.564858734084031272e-04,2.997541074171448439e-04
1.531534868864873472e-04,-4.962013181807785334e-04,4.237488835821178547e-05,5.123025432335415533e-04,-1.322540221738852193e-03,2.478534168310360234e-04,-5.716573587725032888e-04,7.697049276072768674e-04,-1.399499542100037614e-04,8.049595899855832310e-04
2.936404893783850522e-04,-5.365019287183225068e-04,3.305748187259375062e-04,4.392447037078688705e-04,-1.246695253517942237e-03,-7.831138133344063025e-05,-8.109899805152351098e-04,4.125076161188266925e-04,-1.415996858720930450e-04,1.338130602026014202e-03
2.992669921476995179e-04,-5.616468919079198709e-04,1.856606411072369135e-04,7.357510913648032929e-04,-1.538161290157128054e-03,1.967798411429182376e-04,-6.551418851513372442e-04,-6.931745753417647708e-06,-4.493136475291594281e-04,1.793736894736309550e-03
3.587042639503952319e-04,-8.950977959682618681e-04,-5.681332039300355678e-05,6.843028323678016596e-04,-1.670623424804877025e-03,-3.131132111527179865e-04,-6.196607194547551706e-04,2.363647250117635991e-04,2.857920592264616704e-04,1.990144591217191204e-03
5.486376616153851304e-04,-8.306895202067346917e-04,-1.264103876541046759e-04,2.289717098582802436e-04,-1.520978502626454433e-03,1.646178823948452746e-04,-8.959283202102329407e-04,6.202480476768564965e-04,5.617602390619765831e-05,1.755355405245966885e-03
8.463192047637805833e-04,-7.186856488572365437e-04,-5.989069253893058347e-04,3.757533141305328841e-04,-1.019250941431069576e-03,3.286767412855751548e-04,-8.528974478794193459e-04,8.582682217132001296e-04,-2.859379087448396290e-04,1.066661390408781256e-03
7.795679596342180084e-04,-5.037298026506342860e-04,-3.048904521813536024e-04,2.405249620743973513e-04,-8.107535307895773246e-04,1.755643863682794265e-04,-1.035758919704976577e-03,7.736647228473237433e-04,1.248671208176186547e-04,5.609435535847036303e-04
4.724052062378848575e-04,-2.938733297700562634e-05,-1.977614550133326144e-04,3.098937980029331518e-04,-4.984028923764463950e-04,3.024336857743745253e-04,-1.103363519152913801e-03,4.186268839144993334e-04,3.879197444376043856e-05,2.867636511462498127e-04
1.739533276213687477e-04,1.330668922931802509e-04,-2.689157173263276735e-04,2.603859912707894323e-04,-3.926050070663013466e-04,3.472078186516246645e-04,-8.691781612196642108e-04,3.579217118474217513e-04,1.208743802967525394e-04,1.372887636311561970e-04
2.840387001661097898e-04,1.245619809474481844e-05,-7.260706417146954800e-05,-1.126013961392661263e-04,6.033877071983437918e-05,3.496439562692797037e-04,-7.112555055755055526e-04,6.467225501617401048e-05,3.442190801849564314e-04,-2.189049945648572184e-04
4.540287404385566429e-04,-6.857043914199086715e-05,-1.370401747133682599e-04,-3.632326209083265524e-04,6.584274089906787296e-04,6.290035265121765714e-04,-6.836966638498424148e-04,4.228542956882051844e-07,3.143527663925871980e-04,-8.036953980161591973e-04
2.584226754587166963e-04,-2.883963746893423324e-04,-8.277197185124511233e-04,-7.128909605116230241e-04,8.728472922334218689e-04,1.523572471048997064e-03,-5.145048512035977793e-04,-1.750948811943884144e-04,7.872692767898684238e-04,-9.235049294196027081e-04
-3.726065671307393873e-04,-4.669554482285202899e-04,-5.550553626442416124e-04,-5.269638186164913012e-04,3.401841019666495278e-04,2.189334531966715281e-03,-1.814111049593075773e-04,-2.383413993289100138e-04,4.533795144199508206e-04,-6.415644474451081582e-04
-4.569552181164390726e-04,-2.428618749911845467e-04,-1.606958038580484638e-04,-1.436767612950791125e-04,6.061328330651549891e-05,1.614195351194429350e-03,-1.815500568218796345e-04,-1.540887895434096344e-04,-3.753238349413466092e-05,-2.974477463807685511e-04
-1.578823082410523153e-04,-2.402641741496544297e-05,-2.560015585079724251e-05,-1.429185955713831545e-05,4.101014771669406265e-05,3.752910611044689058e-04,-4.981797108691581635e-05,-3.207827614834785469e-05,-2.273653213870195593e-05,-8.986768838324402857e-05
-1.259680828418483044e-05,-9.021246139462460396e-06,-3.290282902155879994e-06,-7.531357710460275500e-07,-2.721020826301520252e-06,3.562831834719863732e-05,4.653720393359901527e-06,-1.988953617759712450e-06,-6.050462148044226389e-06,-3.860129051603917691e-06
8.663169573305885590e-06,-1.343816243774666981e-08,-2.468671031174753826e-07,-4.219721177815222304e-08,-3.774077269012404079e-07,-2.403597745514200736e-08,-5.603297261303483526e-08,-4.385911689726264852e-06,-6.653620626574729682e-08,-3.450742523011082197e-06
-7.371014738140761120e-07,-4.254334871463215684e-07,3.450349687277500016e-06,-5.085814083253330639e-06,-1.197900742467656061e-05,-1.410407448766954236e-06,-3.094252993746472046e-07,4.913057420149577779e-05,-4.230302222984385886e-06,-2.840343244875691774e-05
-6.072469385307821195e-06,-3.230546818181195625e-06,2.011391302515716945e-05,-1.964723356522511024e-05,-9.070921097303415276e-06,-2.431205009599517948e-05,-6.050609256085933023e-06,1.510443287988292270e-04,-2.237811005168445537e-05,-8.039630155420332774e-05
-2.797652772113789422e-05,-7.552358092692927074e-06,5.863509324613466706e-05,1.906707712797158373e-04,-3.250063053373032098e-05,-2.122869570327567880e-04,-6.724898038223907208e-05,4.146182984617456137e-04,-4.715937890252175813e-05,-2.691993303225175709e-04
-1.808538019538720139e-04,-4.980584242279218420e-05,3.615237827166666420e-04,7.693822055306434897e-04,3.114286921640267919e-05,-7.874067451861273660e-04,-8.725586299660696016e-05,4.931988494671646090e-04,-6.078907180467152627e-05,-4.891363825668099781e-04
-2.258764669797156289e-04,-2.068867084400445404e-04,4.781656601585518611e-04,7.775801718671830750e-04,1.823891169524904758e-04,-7.083469174405204695e-04,-2.872016719024347896e-04,6.229298078350284026e-04,5.541231309969019451e-05,-6.881653051502266156e-04
-2.185819788704942371e-04,-4.284510631643125879e-04,4.680541892066636574e-04,5.435195348613752536e-04,2.027595246986561747e-05,-5.107601324551174805e-04,-4.199663311156028424e-04,7.206955175478811084e-04,3.867510650033611033e-04,-5.615367534836157365e-04
-3.173087891873318904e-04,-5.781581890331098606e-04,4.325984676779297700e-04,2.780852219355880897e-04,-5.434288313911059726e-05,-2.110271235922034990e-04,-3.634618149673923804e-04,9.645114330247530265e-04,5.397060407571483472e-04,-6.906023634762710126e-04
-2.537093274159909323e-04,-8.717353401724102068e-04,3.048437481016047610e-04,4.321567984908817733e-05,-3.804761186623846947e-04,4.429453038107679743e-04,-3.330912255520285920e-04,7.348607843121519488e-04,3.505594622375416618e-04,-3.741296650833925022e-05
3.949204245914637472e-05,-1.096026608192852796e-03,2.886609576127541123e-04,6.456906921506809602e-05,-2.121551168229913076e-04,3.159335271210159568e-04,-4.244693634895110239e-04,6.312964027114430178e-04,5.711006747331125394e-04,-1.784015853471854240e-04
1.093455509119346195e-04,-9.908416124132103219e-04,7.150032663773354166e-04,2.317236295797778277e-04,-5.376135154477280562e-04,3.313756462571765347e-04,-6.408353130001428121e-04,5.738925995375098073e-04,3.224199621820030763e-04,-1.144702139846564306e-04
5.046391501616920587e-05,-7.644567071322853988e-04,5.271815325394735036e-04,5.052283024228750540e-05,-6.697520200751320074e-04,5.435431375225501611e-04,-5.338303983964142775e-04,9.154299791362313426e-04,7.068951830258973085e-05,-1.897917871554724762e-04
2.077318348402610833e-04,-4.161232199996788613e-04,1.933299934763376326e-04,2.264152882610759451e-04,-9.649422854796378592e-04,1.743773969874404532e-04,-6.434364547849251567e-04,1.018839886888874740e-03,4.465561159476308080e-04,-2.427485561373788118e-04
1.649679266811379067e-04,-1.820738248117615234e-04,1.811799653529971735e-04,3.017402484267530131e-04,-9.465536466284699959e-04,-1.924883260910630240e-04,-7.615979485653805734e-04,5.395454286786978979e-04,4.136113446516497026e-04,4.816688323054414017e-04
4.589028539525140805e-04,-6.959058158562959320e-05,4.309946060660477989e-04,6.393490166628803791e-04,-1.606205098421562656e-03,-4.292388494581197565e-04,-8.496354695744223751e-04,6.962398502180197667e-04,-3.616810601781321531e-04,1.090864732318400131e-03
6.548282063477582019e-04,1.264795685798252980e-05,3.225217626593821917e-04,7.157755163269386529e-04,-1.666731002729063792e-03,-6.498311902807310785e-04,-1.038068290864162463e-03,1.040455142813093842e-03,-3.133080887643868349e-04,9.217099876331881709e-04
1.040446645771267616e-03,-3.594679572542954491e-04,-6.986288654828261910e-06,4.401453592316433147e-04,-1.316774699578074879e-03,-3.988540650715422572e-04,-1.235809247577892038e-03,1.086038641057326471e-03,1.881513854589773806e-04,5.631102266174199461e-04
9.353842805555107227e-04,-5.218873229823230961e-05,-9.454337935818907387e-05,4.526004008933279710e-04,-8.024945719581084297e-04,-2.090553509794039705e-04,-1.433833510397464987e-03,1.042510762734943528e-03,-4.685510939000692458e-05,2.084752101976279518e-04
7.392815130250744065e-04,-2.159415206373509514e-04,-2.542905191352998586e-04,6.114247384065878881e-04,-4.201563903670214027e-04,-8.494320097219426602e-05,-1.856983569569410283e-03,1.087800793262898172e-03,2.062158868262927564e-04,1.875922691604267373e-04
3.682817351767511075e-04,-2.527344338955188623e-04,1.680825467481292820e-04,4.939943831115061563e-04,-3.132428627379426982e-04,1.636922737246152709e-04,-1.681254149072640598e-03,6.777532961684257359e-04,3.968134617753427194e-04,-2.138625099866828954e-05
2.209972103474395653e-04,-4.059523197881225289e-04,4.330236462597095527e-06,5.973643108949929859e-04,-3.016767270275984053e-04,5.128601688757545999e-04,-1.297239136496532120e-03,5.605274508528641656e-04,1.475139250482421574e-04,-3.872511916963667570e-05
1.872051999597675422e-04,-5.452223953500899513e-04,-4.697991939685788621e-05,3.869498197941769716e-04,-9.500530615714428964e-05,5.497821858331692355e-04,-1.050971495860305877e-03,1.263074722493050727e-04,3.765211605016062502e-04,1.114132784263743755e-04
6.091384319590539831e-04,-6.575236161824233629e-04,-2.193107121232421421e-04,1.323368998303503291e-04,1.307506031606558408e-04,6.688047588779237737e-04,-1.011990970136749735e-03,2.191817393049129306e-04,6.997664715824554807e-04,-5.711536062729378029e-04
7.232426821815229933e-04,-8.124398943218773825e-04,-4.971672914711382056e-04,-8.322465344633181395e-04,2.827937344063623714e-04,1.954904986876997586e-03,-8.630316692836032541e-04,-3.785422341450018444e-05,8.949210952220807824e-04,-8.131228857325272516e-04
-7.988250107568945033e-05,-6.809173259409991930e-04,-6.404101695168628976e-04,-6.642803148948606779e-04,5.166563291911554899e-05,2.863121194260758243e-03,-5.620503437743922274e-04,-3.223345699130206058e-04,6.579168667420251916e-04,-6.228284688060758490e-04
-4.497403125469152832e-04,-2.917206718805985532e-04,-2.317185607629743376e-04,-1.806048948254733563e-04,-3.990011258575318045e-05,2.000272536748134641e-03,-3.067766036311559970e-04,-2.091965735760134071e-04,3.092305023997464443e-05,-3.215378571792252183e-04
-1.404778106937318890e-04,-3.023146207623193140e-05,-3.009237241095735364e-05,-1.781861819550920232e-05,-6.152510856437715158e-05,4.861137494904710279e-04,-1.278038429554491861e-04,-5.188108462580141595e-05,5.962447527304063320e-05,-8.590792524145367335e-05
-1.219652025788699102e-05,-4.307670472734593450e-06,-2.777186638408593747e-06,-4.768065959527232063e-07,-1.041778514581723118e-05,3.682638947557728042e-05,-1.870523247175583949e-05,-1.007800781196215274e-05,2.769182511499790897e-05,-5.559005196057125864e-06
-5.226017449804517748e-08,-4.162128146169329363e-08,-4.501087765481893262e-08,-2.871715080564262256e-07,-1.062087445142719175e-06,-1.410708796720356666e-07,-5.908084806826235474e-08,4.255278878877313929e-06,-1.707390368912856039e-07,-2.396236827432023966e-06
-1.134476472133139913e-06,-7.573617826642701363e-07,-1.842250404508247302e-06,-5.336687627339521496e-06,-1.581340857493684899e-05,-2.181294006030296508e-06,-6.449732181920828371e-07,7.538073644871125852e-05,-6.166219093013235790e-06,-4.150406526989352884e-05
-3.233623944318433864e-06,-3.163946502896027684e-06,-2.128200111361416562e-07,1.224217535671274799e-05,-2.962487869009921751e-05,-1.501698689003675620e-05,-1.004469697158761541e-05,2.080940352014151642e-04,-3.544231365326295944e-05,-1.235969438947906571e-04
-2.677567079577268820e-05,-1.140564367876588884e-05,7.287205277544496007e-05,2.259322633030555515e-04,-1.516550736651600152e-04,-2.275271306326430952e-04,-8.804263409299934817e-05,5.933060740128324713e-04,-6.784746257424701646e-05,-3.188567746517462979e-04
-1.746349725007216981e-04,-8.036840460520901046e-05,2.824645168362619504e-04,6.903189189224198056e-04,-1.607752182271320214e-04,-6.198120570373751156e-04,-1.228892438935502891e-04,7.772384441557389631e-04,7.111078508966331557e-06,-5.986530621593992530e-04
-2.181268150597892922e-04,-2.870328347123321305e-04,5.466284364134168638e-04,4.969640879638478155e-04,-6.605615589857529151e-05,-6.570393387650421638e-04,-3.729821329366165227e-04,6.736752380447434121e-04,3.147072918303696104e-04,-4.307377768800208103e-04
-2.678857490183544346e-04,-4.046289961864796367e-04,2.280972875465805082e-04,3.582319467737234185e-04,-2.734914539372855480e-04,-2.717390970833173593e-04,-4.227237915901396943e-04,4.306771889988291434e-04,5.613522949225489356e-04,6.211036957389600886e-05
-2.809889163249138151e-04,-4.774165138873859163e-04,4.591493089251885896e-05,1.846683026507534996e-04,-2.397278549173393583e-04,8.721231300618556385e-05,-1.852598469913551273e-04,3.056088628424702891e-04,5.763071821914488545e-04,-1.631845946238120912e-05
-2.312863802195969716e-04,-7.090509134018308651e-04,-7.602225684032838183e-05,-6.403309438997763366e-05,-2.575020598043848081e-04,6.122632152624711945e-04,-1.470042884528668481e-04,2.008636633680528085e-04,5.949481386964439612e-04,7.682397578201822185e-05
-8.427787113016580841e-06,-8.741851517557471625e-04,3.179007114345312160e-04,-2.749669045254605235e-04,-1.486470445078337944e-04,5.251043799803078310e-04,-4.593895009536535482e-04,1.738327159212165547e-04,6.795991215920636980e-04,6.917945992759174886e-05
1.269307534487393589e-04,-7.161811798803215546e-04,5.678173882135087317e-04,-5.947670319678691675e-04,-3.524297660072065819e-04,6.045910951496170525e-04,-5.415829948186295798e-04,1.146366737820619821e-04,5.225186045253378021e-04,2.684664575547640163e-04
-1.266838412328488630e-04,-3.948176145795724524e-04,3.161271835882632753e-04,-1.170664885495428364e-03,-3.916526523566114218e-04,1.175873330606151202e-03,-5.011047653211782218e-04,4.905599173250012280e-04,4.698764947454359023e-04,1.324868327207806139e-04
9.522647912370072853e-05,-2.577322440539341715e-04,1.776048835572986305e-04,-9.077935684941776774e-04,-3.352842315172049675e-04,7.284308466387167790e-04,-6.023351633552931177e-04,7.268499152318131946e-04,2.701188910257386160e-04,1.049141918433407116e-04
4.415156004079087378e-04,1.582949371481884640e-04,2.971475576820516271e-04,-2.459798031742323741e-04,-6.830792031978537900e-04,1.046930241220231405e-04,-8.058779180953378005e-04,4.983507536210824741e-04,2.915223141909120417e-05,2.057828200670821692e-04
2.604412574400952651e-04,7.666035390083144685e-04,5.272526847119795787e-04,7.001057153038649878e-04,-2.024405873768884458e-03,-5.528947104045492692e-04,-6.810974894504905281e-04,1.044943050803962166e-03,-6.786414418618738143e-04,6.376932682175825247e-04
7.453147176988282510e-05,1.203754966023592738e-03,5.925648633225957720e-04,1.138502509782100217e-03,-1.508693926262322888e-03,-1.098133165826367880e-03,-1.161742011158017548e-03,1.330738497949864214e-03,-1.236046427142802225e-03,6.645232215414765501e-04
5.152264570873116073e-04,4.371589253545388079e-04,4.187367939064894963e-04,8.808674895899700407e-04,-3.735509361549586740e-04,-1.170571156006598940e-03,-1.612550319244560829e-03,1.474426721883422215e-03,-5.727659651810567505e-04,3.021988765443824767e-06
8.256059661534200520e-04,1.992338871397517097e-05,2.301992103984390372e-04,5.835363240100881329e-04,-1.779108197319115368e-04,-8.108929370141207144e-04,-2.015660169467269926e-03,1.339904670206961594e-03,-3.707169848699626757e-05,4.236606521741667278e-05
8.667066940660708577e-04,-3.021733955557503537e-04,2.541753777663922085e-04,4.502060775066039780e-04,-4.628867349361393436e-05,-4.400861899600040671e-04,-1.999880810623152691e-03,1.018271245319612127e-03,1.669911211640296770e-05,1.823705628574396698e-04
6.604613701593455488e-04,-6.672448857567907189e-04,8.048113809247784583e-05,5.820663112178721182e-04,-6.976328378030004283e-05,-2.608986043659284725e-04,-1.673850883268171441e-03,9.486170130844401218e-04,4.553426264406631421e-04,-5.521080182360774905e-05
2.656324457675834027e-04,-8.606071400514808244e-04,-4.144158967479606465e-05,9.302631544069886807e-04,-1.519015546892582785e-04,9.244189896157025473e-05,-1.268760951310916396e-03,6.269052737845815697e-04,3.687736595695181711e-04,3.869480323620510094e-05
8.504915594884122096e-05,-9.380984161060243682e-04,-2.022634040476154859e-04,6.901626680150856541e-04,-1.361369444938757682e-04,7.278693586730730332e-04,-1.078922512850599615e-03,6.011886963573956875e-04,5.238609386599903540e-04,-2.727095401562715932e-04
5.176613503348405539e-04,-9.974685537153435942e-04,-1.577198015849774705e-04,2.836424660880989624e-04,-1.683259432678444064e-04,1.043249805480813124e-03,-1.113525242120930918e-03,3.394800010931094039e-04,7.852566580451497474e-04,-5.322507403529148874e-04
9.438230280462156247e-04,-9.076112351130514316e-04,-4.696785975043738437e-04,-5.457857337895826106e-04,-2.997307196373272188e-04,2.150279001479115607e-03,-8.108346077123642325e-04,-1.591905391268497432e-04,8.273202424593197523e-04,-7.285908391010975128e-04
2.203954913535873135e-04,-5.937610720103687467e-04,-5.842383395410751055e-04,-5.604287367060702477e-04,-5.828834664754551287e-04,3.368907819698139204e-03,-6.357302179374900355e-04,-2.945214287408096814e-04,2.276688642662693263e-04,-5.654089139067301241e-04
-4.414515954139858417e-04,-2.449133176486221726e-04,-1.997176129554237213e-04,-1.316296075452778359e-04,-3.696287515947011275e-04,2.373387084013291789e-03,-4.391838602964187382e-04,-1.558189519581414703e-04,-1.036945474947047782e-04,-2.873488391060228251e-04
-1.461406204859316035e-04,-2.914625635860229318e-05,-2.311185170865001764e-05,-1.903521018842926316e-05,-1.198203501383648771e-04,5.570612398927918003e-04,-1.683351437084930563e-04,-2.434351850091533994e-05,5.874673021473318581e-05,-8.587501901813919590e-05
-6.920563948350888004e-06,-3.185233609356140784e-06,-2.398603497823314838e-06,-9.430218241462473145e-07,-1.172781253942553880e-05,4.499970060921259981e-05,-1.085882900919836897e-05,2.814149984528949809e-05,-3.103041448155542719e-05,-6.076721544646115882e-06
-8.186657861839853744e-08,-5.103419757893346578e-08,-6.800933883097625215e-08,-4.161322718915020585e-07,-1.265109728308807563e-06,-1.889748013170587019e-07,-7.677910572922965558e-08,5.921332063920037350e-06,-2.264628299930585647e-07,-3.546963211652080843e-06
-1.754183948355715804e-06,1.873487090800190869e-06,-2.004223940488910628e-06,-6.191440415413491298e-06,-1.510093941295285949e-05,-3.066250050568647992e-06,-8.378604683408545449e-07,7.758363912862622244e-05,-4.186301263842902048e-06,-4.631592671946305586e-05
1.304531904058436453e-05,-2.476249533244884963e-06,-2.685031923123948862e-06,3.521205478343966551e-06,-8.286874657657095728e-05,-1.592758132383404612e-05,-2.451393708510072640e-05,2.988636969432436914e-04,-3.008664298596418145e-05,-1.568720320343329076e-04
-4.124648289423607712e-05,-3.385904310936627159e-05,7.659627299548024909e-05,2.749206093662228496e-04,-2.153374559410846259e-04,-1.779057081288031657e-04,-9.494344069442465334e-05,6.573886654844221956e-04,-1.112383480720091709e-04,-3.343750690062013975e-04
-1.693927893346525789e-04,-7.976585578894362255e-05,3.419158928627128097e-05,2.966313949123550956e-04,-2.291312457410887046e-04,-3.172513981700165998e-04,-1.789560101843173099e-04,8.933309070352346950e-04,2.181417565286904257e-04,-4.677983485435333998e-04
-1.729028860836632358e-04,-2.612187627736871679e-04,2.200333640906978973e-04,-2.311619110938460431e-05,-2.914317475324859261e-04,-2.901458605484551483e-04,-3.245190068664694167e-04,7.543862312276778575e-04,3.681077330529569907e-04,2.080712654281400390e-05
-2.434292884808229190e-04,-4.246748184550516638e-04,1.002330157264932963e-04,-2.043300406075164715e-04,-4.325871183387597005e-04,7.879801023805385368e-05,-2.759748893757366420e-04,2.599826336786741684e-04,6.321106756448198949e-04,5.098718199698458855e-04
-1.987622486848227943e-04,-4.820939079515626285e-04,-4.485804894909091413e-04,-5.387279315390300707e-04,-2.011367978420532002e-04,5.335422066199689865e-04,4.677490189300756570e-05,1.940822154007823238e-04,7.643543693901444155e-04,3.305476822044754108e-04
-1.513590964260021644e-04,-5.461017664314326506e-04,-4.180655573755272052e-04,-9.855498334048193917e-04,-1.608430481049346930e-05,8.916469837263119513e-04,8.405282320455137446e-05,-1.114174818367371701e-04,6.969052112005784524e-04,5.559730221535702900e-04
3.117708846654911402e-06,-6.903510115115580551e-04,-4.854158754251024178e-04,-1.408508257029701932e-03,4.091582441697473702e-04,1.153131989997503411e-03,-2.408165225771815394e-04,1.009794129945065777e-04,8.117737178389121270e-04,3.469305926962157425e-04
-2.495648825574298319e-04,-4.693605013784816929e-04,-4.857170649412570550e-04,-1.646059681988412855e-03,2.213714750080261772e-04,1.061062927914238271e-03,-1.330710694191846886e-04,1.560699966245160679e-04,9.820523039530020589e-04,5.632164967849835483e-04
-2.904666554985142433e-06,-2.697883081825049327e-04,-5.191539663573523826e-04,-1.752546430184460328e-03,2.046016103162574676e-04,1.202922033379099980e-03,-3.180273408271584029e-04,9.757875045067476716e-05,6.332932498864908902e-04,7.240250680739381906e-04
8.996356042730068239e-05,-8.713594817919692657e-05,-7.147655849128706522e-04,-1.409919621939480314e-03,4.830296767089234888e-04,1.251917689547493717e-03,-4.643947050828479278e-04,3.780843123641377369e-05,4.802663589313566138e-04,3.332301432629137454e-04
1.834351043317750389e-04,5.918379929539494292e-04,-9.461956837757479807e-04,-7.050301337222673263e-05,-8.238849986183163906e-04,8.993696931934114323e-04,-2.658682049633395370e-04,6.579224983691139015e-04,1.126714188489330278e-04,-3.387848069675537745e-04
-1.208247755950111964e-04,1.757248498444249733e-03,-4.059033143172093515e-04,7.404155130863315781e-04,-2.284147665019909193e-03,3.032165479133117048e-04,-7.234516519965650911e-04,1.086787424910031939e-03,-3.323952695565637341e-04,-2.094530786866567406e-05
-5.094950534767247845e-04,2.086352534259735061e-03,-2.818273279415344531e-04,8.888464267607695118e-04,-8.016354788924210306e-04,-3.829943172683424025e-04,-1.445160485564030628e-03,1.697183327242630891e-03,-1.055888448458219180e-03,-1.953811766618653175e-04
-3.022231852709738112e-04,8.229710497049380060e-04,1.531437461368492057e-05,8.119864249206904319e-04,7.810804270327073411e-05,-8.102190088433732342e-04,-1.648918409780135257e-03,2.042467253121720266e-03,-9.733805812011250228e-04,-3.610595996869431294e-05
4.775385627749738197e-04,6.518308069791815828e-05,2.098956533801063214e-04,6.849874717349413314e-04,2.751919415054860296e-04,-1.127012808635364767e-03,-1.654277385860169558e-03,1.461672322394823960e-03,-5.875127786352537075e-04,1.943339406425372343e-04
7.311516678275321868e-04,-5.477103909602529675e-04,1.700181847851548128e-04,6.411510119456846363e-04,-1.033158279932193803e-04,-9.778277144586078502e-04,-1.521253845803249459e-03,1.213479514408762712e-03,1.247767993994800689e-04,2.695306008487166225e-04
4.924990163552249835e-04,-7.389746419294890463e-04,-1.110151636125196338e-05,7.472420065688812479e-04,7.930236771944951211e-06,-8.468943415226039793e-04,-1.311633476396378275e-03,1.119336919849670681e-03,4.280586555723512742e-04,1.135371410916491408e-04
4.194218750700603126e-04,-9.899615811726793484e-04,-6.727224308493849245e-05,8.928433653233391150e-04,-3.956349532202746455e-04,-4.224809541598166214e-04,-9.688201893920429667e-04,1.078193374174839627e-03,2.277344572160573308e-04,2.259768492454558521e-04
3.425247598912663683e-04,-9.207442814805733662e-04,-1.668903190425593489e-04,4.311714394579855680e-04,-3.371943635087416868e-04,3.575461832071882542e-06,-8.416366908623116845e-04,9.753128404031318399e-04,4.067116362142007098e-04,1.071695170955333878e-04
7.872502052080837878e-04,-8.176864763215031589e-04,-1.892990679170048699e-04,2.775572817514663273e-05,-4.256663995921849161e-04,3.174174312879496493e-04,-7.287130630893532681e-04,5.200822933948032970e-04,6.557951593841685476e-04,-1.469358105301058165e-04
1.171729182696304526e-03,-6.763032157598882063e-04,-3.591070605592963498e-04,-3.424970095194840888e-04,-8.287965584935497176e-04,1.394381956854766087e-03,-3.765657402482904914e-04,-2.275084836763669068e-04,6.350953962120336853e-04,-3.904284675062279675e-04
4.750813966918138111e-04,-4.491626811965046605e-04,-3.779681003663938089e-04,-3.508155526036673419e-04,-6.596130192450496473e-04,2.640816929910787952e-03,-4.512673512150524170e-04,-2.965117951544817086e-04,-1.430194727560547259e-05,-5.162578795458482635e-04
-3.841836281001795241e-04,-1.415940164720136266e-04,-1.162203814139002415e-04,-7.046510881384423044e-05,-4.096233252809938904e-04,2.243300777639017137e-03,-4.774441382371203096e-04,-1.166756338206813949e-04,-2.850042996273939653e-04,-2.420902458728903879e-04
-1.476391902075848718e-04,-3.655844305396567843e-05,9.120038239717258966e-08,-1.106759827526657346e-05,-1.161357558295439841e-04,5.840084993061632652e-04,-1.542345020627306374e-04,-1.980989914040646031e-05,-2.945899631536014719e-05,-6.919531480370226160e-05
-1.854864177337798207e-06,1.268039159566333836e-07,-1.449856838375285787e-06,-3.026675135830744797e-07,-3.339980114504858600e-06,2.034556115124995420e-05,-2.150886596406269971e-05,4.033341223460851277e-06,1.370922883054142488e-05,-9.758700513345136183e-06
-9.254713984600675636e-08,-2.486270734517105942e-08,-5.309489667103301355e-08,-2.360895675133133044e-07,-2.546831843700301123e-07,-1.458432118349479201e-07,-4.057665491586804143e-08,2.943209647287409706e-06,-1.499799949490602645e-07,-1.945532289841974437e-06
3.819379766707044544e-06,3.577701253990536694e-07,-1.219141719741022048e-06,-5.771193760421875061e-06,-2.909961142564774925e-05,-8.050994639455527765e-06,-1.452777006758560046e-06,1.122992864976517507e-04,-4.621462050714865219e-06,-6.626125578701809362e-05
-1.017124663812873133e-05,-1.198160566125906490e-06,-6.846017124462442764e-06,2.243790359582151221e-06,-1.496867019715659747e-04,-2.197352858871277285e-05,-5.005591165405562778e-06,4.384985250295607906e-04,-2.298472327641000172e-05,-2.228763460583311053e-04
-4.830530670480375166e-05,-2.284438397609530103e-05,-3.672792546335182959e-05,1.940346829943261813e-04,-2.037830632826057693e-04,-1.601230515489135192e-04,-8.909011119889460439e-05,7.606732372181548548e-04,-6.597931158122195047e-05,-3.278547664565933245e-04
-2.967658091084730875e-04,-4.104379349677500727e-05,-1.775733815844295429e-04,5.453635953530398193e-05,-3.057173325453881453e-04,-1.268287033128436187e-04,-1.554279076260622265e-04,9.849649548894891596e-04,1.670797024985606427e-04,-1.032240892493812141e-04
-2.986414900046496920e-04,-1.514512457186195887e-04,-3.978432891670271752e-04,-5.111737116131996475e-04,-2.349627273026839438e-04,3.070821680083793425e-05,-1.111375435903116016e-04,5.634792434135455896e-04,4.925494676202409267e-04,6.184730795618685129e-04
-6.333757795810809638e-05,-3.430845488560314892e-04,-8.843982646237612700e-04,-8.960234861917036739e-04,-1.181830676562249319e-04,5.667375893157851818e-04,-1.675699512161565427e-05,1.841056687211458135e-04,7.007987460250287345e-04,8.701419363454843863e-04
4.635611405561214452e-05,-4.228861804232213694e-04,-1.325521007663228636e-03,-1.366691537979723660e-03,1.602710226592532960e-04,5.750030973756446945e-04,3.251752728291483008e-04,2.859947256224952767e-04,1.033276199498487898e-03,6.890222940255383635e-04
-2.940120807805717018e-05,-5.134839727134008370e-04,-1.443843776999290205e-03,-1.568935216325186531e-03,5.589034096015804351e-04,7.355650820206204206e-04,1.806697451839568594e-04,8.701146701536654820e-05,9.469458959091624304e-04,1.046568574385246938e-03
-2.348083249291872134e-04,-6.741584007790748633e-04,-1.577986092602152481e-03,-1.380178933183501310e-03,9.607574799438751327e-04,6.088102591644903175e-04,2.892232996192977074e-04,3.653915600007596434e-04,9.349796110586884113e-04,7.079695417068008600e-04
-1.945712106795359009e-04,-6.305875322816380897e-04,-1.938382037093746256e-03,-1.155343081798041295e-03,1.043835660473567666e-03,6.690575986882884262e-04,1.521742194891251277e-04,4.766866965980476735e-04,6.890821510969854418e-04,8.880475355069473694e-04
-4.303641597822275980e-05,-6.753805165866780041e-04,-1.937059071055923171e-03,-7.578214138530506728e-04,9.504906922293605452e-04,9.275057275893073975e-04,-2.850662295597981160e-05,3.059696598035029145e-04,4.177892519322825519e-04,8.400487088753982997e-04
-1.537809082003071767e-04,-3.323700172559000145e-04,-2.161582261473913701e-03,-3.902490764368332730e-04,9.783845964318313351e-04,1.278612312863091271e-03,2.185151175985924215e-04,-3.343601091048544952e-05,6.416846272659648687e-04,-4.577837988203602599e-05
-2.095949225473082804e-04,7.919223916295774256e-04,-2.355029425188777652e-03,3.433876497359413297e-04,-1.262101250998094769e-03,1.571780851054272029e-03,2.213051230247602293e-04,2.132216387031604394e-04,9.957573369004768093e-04,-3.106493923140057445e-04
-1.054161548828173953e-03,2.421461638057334151e-03,-1.720420941713701008e-03,8.000996355055921315e-04,-2.009698935588064353e-03,5.087276407656412267e-04,-7.436228594911878462e-04,8.066007542188943519e-04,9.739022141596447848e-04,1.711240291401690342e-05
-1.651295646827902110e-03,2.337555840306592813e-03,-1.124864705709953958e-03,6.791992508376666236e-04,-4.274917201958644834e-05,-3.286479954446221304e-04,-1.585262585932359965e-03,1.548827538519073968e-03,-1.940516706238666221e-04,3.612891468949621125e-04
-1.516851898077195993e-03,7.390865017390521249e-04,-5.622288864636536872e-04,2.679855475459294849e-04,1.029331078180952897e-03,-5.804378266062428177e-04,-1.123117462966744884e-03,1.777687049707916403e-03,-6.897171687353901995e-04,6.582630656753777568e-04
-4.683472691255585697e-04,-1.406480374679438671e-04,-6.767531417886928644e-04,6.447140797039554658e-04,4.792533813105365995e-04,-8.260141712774254257e-04,-1.033844679713482023e-03,1.485771628145023506e-03,-5.690112338512431835e-04,1.104879444064835702e-03
5.339125830258478185e-06,-3.191666239943801060e-04,-3.184570830799421403e-04,5.837803030246819505e-04,-1.664391500405448181e-04,-9.535467894118575998e-04,-8.715082621132616558e-04,1.423925271689230072e-03,-2.121804248617671781e-04,8.282536329575754990e-04
3.833758028548106089e-04,-6.481006496779886852e-04,2.061943125165676218e-04,6.589406154818166659e-04,-1.644638394631295440e-04,-1.451834918564664156e-03,-6.901097500871354725e-04,7.982818663030187643e-04,7.139147257894039821e-05,8.363250880577670918e-04
4.815295432261540182e-04,-6.962432583339887848e-04,-1.368393437691803132e-04,5.881118968637361576e-04,-4.746284977554676449e-04,-1.824328539330282318e-03,-4.536091408523612416e-04,8.501923821535208991e-04,2.862813550341130491e-04,1.379533602763759973e-03
6.763171472584834660e-04,-5.674323058349442679e-04,-1.276198268841567261e-04,-2.288412950725781064e-04,-4.089769429250943644e-04,-1.609885381538582981e-03,-2.165552741924210156e-05,7.668585052864164767e-04,5.095443933952562704e-04,1.011691233734444669e-03
9.505651214275221209e-04,-4.295496640798067596e-04,-2.910288122785755979e-04,-3.313264158883845001e-04,-5.032431974851460810e-04,-1.473685042061278041e-03,1.771962726723932523e-04,4.352437596972731138e-04,9.758363302568160346e-04,4.899916477391884091e-04
1.176487885393252570e-03,-3.106789944796317236e-04,-3.596706450332406101e-04,-3.804535324964681414e-04,-7.440721314745734434e-04,-4.894421099693842736e-04,4.917225342043210707e-04,-1.775321944834094324e-04,9.108782123683920257e-04,-1.172390240292556837e-04
6.845391953718561306e-04,-2.135484884574114092e-04,-1.704026360294552580e-04,-2.522453518972411724e-04,-5.432168677123514183e-04,5.521616389838385121e-04,-4.662372652664542806e-07,-2.635987508720186211e-04,5.601061335490135299e-04,-3.533286356709635419e-04
-1.978204701680822016e-04,-7.822009476185295290e-05,7.635609271041803600e-05,-2.306077347285122729e-05,-2.446051982919423347e-04,1.032795215179363457e-03,-3.544152095203261790e-04,-8.880661633050731770e-05,4.888929793583163757e-05,-1.711122432800503044e-04
-8.486118187124867861e-05,-2.528885365528865819e-05,1.324328583685442985e-05,-5.203884972644041891e-06,-3.467968953911183507e-05,2.881307525340051569e-04,-1.710883674069238263e-04,-2.682407598158606334e-05,9.672917088169886166e-05,-5.015715582575530179e-05
-1.207042492995770478e-06,2.560074126150395582e-06,-4.213983518664625615e-07,-1.395138150257818350e-07,-1.685591602991895522e-06,1.097709202352578964e-05,-1.207451411033723845e-05,-2.686605604499112294e-06,9.034877083813529911e-06,-4.357377255773456450e-06
-2.349948783939271065e-08,-8.562414745688592239e-09,-2.428546528367841279e-08,-7.297132726695846782e-08,-4.429561184377890489e-08,-3.644112154415803038e-08,-1.273374381968554147e-08,2.553412287905235735e-06,-6.384767468550948071e-08,-2.266775440876386346e-06
-6.417958122596278718e-07,-2.807634746038222427e-07,-4.674681408284514456e-07,-6.625632223826667133e-06,-3.624302136390944635e-05,-8.976872041669818500e-06,-1.226913196938058991e-06,1.093166216428316338e-04,-2.861602763798885284e-06,-5.199255262499686983e-05
-7.910188924008255330e-06,-2.014473885420614085e-06,-2.469765224403416493e-06,-2.083533744829134515e-05,-1.283027583255295738e-04,-1.849379838812875192e-05,-3.820732040721624508e-06,4.009737186936788945e-04,-1.462106813885152806e-05,-2.025055963183237538e-04
-5.805695306390763440e-05,-3.616747140455752786e-06,-1.290318660846416585e-04,-2.478997906848418406e-06,-2.423718166431613119e-04,-6.771673855459677948e-05,-7.168770431076790348e-05,7.905502143987615466e-04,1.148398144726318988e-05,-2.270733721416459759e-04
-3.050694028144478021e-04,-2.915545205887805568e-06,-3.943611109872147808e-04,-1.801403700735254197e-04,-3.565833314865973378e-04,2.918318436077287900e-05,-1.866684894022125989e-04,9.263059523347016468e-04,7.671729500287248981e-05,3.935318182715385506e-04
-1.405876236993712709e-04,-1.065579960045458236e-04,-1.133081087170841918e-03,-6.768380451178641162e-04,-1.090811691701384364e-04,2.427206709798642879e-04,1.395111817460283695e-05,4.986307664623542118e-04,4.154967928160610731e-04,9.953465727298802662e-04
2.917498175709354324e-04,-1.713645276178058039e-04,-1.986793443046126414e-03,-1.136430942910160663e-03,3.355345590517968429e-04,7.156141818844627281e-04,3.790481880482281869e-04,9.885155876532948996e-05,4.061958201784466259e-04,1.067594788074896625e-03
2.370526755424888304e-04,-2.236387318642374150e-04,-2.304958871852252900e-03,-1.318787596406797080e-03,8.623548746981624970e-04,5.895944029909333008e-04,5.332090178335402919e-04,4.079933868167790693e-04,5.235729901070457562e-04,6.936078521343384080e-04
-7.537976206049459054e-06,-3.971371226873946837e-04,-1.837576304904350952e-03,-1.184217394827244462e-03,1.132150557332530123e-03,3.882828324746057905e-04,3.967637358546190012e-04,5.328120889328823466e-04,2.359498082877656581e-04,7.405097757426382923e-04
-8.083018723281738187e-05,-5.747940257312848323e-04,-1.803842482455185123e-03,-5.693489860147032738e-04,1.048197025940234830e-03,1.063822492374628882e-04,4.790080029610950248e-04,1.262636375142069730e-04,3.613868252001535422e-04,9.075779405808403338e-04
4.908832770413450744e-05,-9.958315371882942545e-04,-1.899687055012290243e-03,-5.726494249132368648e-05,1.471560858910408521e-03,7.646138955850734741e-04,2.292167693418544058e-04,-1.568928676970216842e-04,-1.934223806210862498e-04,7.886189314685419912e-04
8.598815260482233760e-05,-1.279017519735660456e-03,-1.837197628227756323e-03,-2.039648977463356320e-04,1.911005925588958685e-03,1.261000401584616223e-03,5.726002340937575482e-04,-6.119624523534781006e-04,-1.724839571733527530e-04,2.740317413644326725e-04
1.826230557106814053e-04,-5.010800525567525631e-04,-1.906072158105214442e-03,1.937346643962348182e-04,1.658826220404068224e-03,1.454774434869005647e-03,6.574977735906096989e-04,-1.578838919389742232e-03,4.368507116319200788e-04,-5.983157305508165439e-04
-4.634605481419517615e-04,9.873576145630485763e-04,-1.786194313088587454e-03,5.595579739871321808e-04,-3.992934264128243215e-04,1.340274641162745748e-03,2.916840417067764952e-04,-1.838700722688068430e-03,1.293887327622059548e-03,1.488741128967008834e-05
-1.703345176302135857e-03,2.960522374819100824e-03,-1.478516138983898640e-03,1.089658848365313406e-03,-1.128845590088625381e-03,1.230391052682272665e-04,-8.010995803419264198e-04,-6.664618743169298644e-04,8.551951515158876188e-04,7.498528800649826567e-04
-2.228681242531994205e-03,2.079651593529440942e-03,-1.331015975103270327e-03,5.176495935695782716e-04,5.100493140215221592e-04,-5.311393871838011047e-04,-9.374502865250320446e-04,8.111803043471810248e-04,1.804246787748949260e-04,9.293314071014837459e-04
-2.002897351405178838e-03,4.414175037955133285e-04,-1.013626993162250250e-03,3.510467547931191601e-04,1.263372861648029638e-03,-1.209997110199834049e-03,-3.298969759142531509e-04,1.502322081933926169e-03,-4.706235185646479924e-05,1.045321580367397467e-03
-8.844365664003132075e-04,3.124201394665374472e-05,-8.979453608874449645e-04,3.702743773507430726e-04,4.683324102525545990e-04,-1.112390642504332283e-03,-3.687637810201324444e-04,1.281638116937606608e-03,-1.784638023939017176e-04,1.290513234718565624e-03
-1.818290166926219721e-04,-3.322769999150721842e-04,-4.720533276121326822e-04,4.681015997848377453e-04,6.695087553061654048e-05,-9.787532809437298267e-04,-5.097983640612495718e-04,9.320582829697697264e-04,-1.628794386482252700e-04,1.170479669587806519e-03
1.098290170168122841e-04,-6.567588431145321990e-04,1.872952202353833715e-04,-2.214602462696712654e-05,1.671438972644573090e-04,-1.201757668253508431e-03,-6.366551939368985183e-04,2.545579265429087309e-04,3.818670713756188296e-04,1.416624597496727884e-03
1.391296946685751203e-04,-4.984334401576448730e-04,-7.447240409736752113e-05,-4.065855700939466572e-04,1.030723150632121106e-04,-1.578647413648474928e-03,-2.136175034351199108e-04,4.132564612258023714e-04,6.774674036148810568e-04,1.438830456860084152e-03
5.126223357795595516e-04,-3.118359302725664433e-04,-1.452428479502329952e-04,-9.348930644394557333e-04,1.768226262631326158e-04,-2.116412902765776437e-03,3.542653168252587743e-04,2.365528540327963675e-04,9.977995824748844660e-04,1.230322030052399210e-03
1.126422818935612219e-03,-2.336472789444039464e-04,-4.596952289892517504e-04,-7.031844969852449855e-04,-1.125755708496462655e-04,-2.291857288697417110e-03,8.742574033263701607e-04,1.839269006700155660e-04,9.498574976411852276e-04,6.664952438927766558e-04
1.310267122402021837e-03,-1.455789680966327736e-04,-6.268899357904708777e-04,-4.505041979583035124e-04,-4.127804559379545071e-04,-1.835201791645588772e-03,1.220781919413946879e-03,-1.179451348300575834e-04,9.086998839170276881e-04,1.491515585260096849e-04
9.240785699217416880e-04,-1.065084905977762073e-04,3.346053345212370945e-07,-1.788442979014453441e-04,-2.161419357953682681e-04,-1.058928891188071252e-03,5.486420693454004171e-04,-1.741943488777091041e-04,5.910959934058118530e-04,-3.295332736471055356e-04
-4.002785262035940597e-06,-4.786667192280183431e-05,3.012125766258930593e-04,3.878095930827242377e-07,-7.623227838491146143e-05,3.314027487861549975e-05,-1.972218314830389435e-04,1.531844675701546412e-05,1.368522679249001988e-04,-1.615878087267187679e-04
-3.779993950127355989e-05,-1.789083342486422009e-05,1.532159496436780687e-04,-1.385285970637883603e-06,-3.596581982809639316e-05,1.020749927597489184e-04,-1.674074335746566784e-04,1.829812116652370364e-05,3.743371503260347190e-05,-5.057346630302558951e-05
-4.223454834722118612e-07,1.805756132483006816e-06,1.316876887008533769e-05,-2.291433088206129653e-07,-7.079792721274429913e-06,-1.698030340401696516e-06,-8.450613496412261809e-06,1.068303206406757829e-05,-5.534691354755197111e-06,-2.242940361499502031e-06
-1.856519681818237427e-09,1.374671682536145783e-07,-1.742954754196057052e-08,-3.459561988655111245e-08,-3.095284884842718464e-09,-6.159222573064551377e-09,-8.281796288212812487e-09,-1.332577136646852452e-08,-2.891777329580696536e-08,-2.380563273488887874e-08
9.560638159605903874e-07,-8.628526477608025255e-08,-4.811712129747792958e-07,-5.022361897286645830e-06,-2.341549847794235293e-05,-2.452231643946314222e-06,-1.069121650892857043e-06,5.756788500864864057e-05,-7.059335601542624532e-07,-2.529134511663600249e-05
-4.531335904606575475e-06,-9.532744174878232090e-07,-1.306568990828992279e-06,-1.458967863519923819e-05,-8.431122126224272612e-05,-8.119509532563409253e-06,-1.923825443092565219e-06,2.580081480293474065e-04,-5.630342297722450201e-06,-1.366423915456039878e-04
-5.363003351744182612e-05,4.654426094476566849e-06,-1.215608723748096197e-04,-2.111333468137135434e-05,-1.761187779791809245e-04,-7.846417275749993512e-06,-7.051260004001132220e-05,5.232618076671432519e-04,-1.281925639638961317e-06,-7.585227225341643073e-05
-1.992800920189997634e-04,2.420242468866371164e-06,-6.279788155691243441e-04,-2.692459371319974246e-04,-7.576710760187007644e-05,1.257947741299551348e-04,-2.075286855974364710e-04,6.328631666113940625e-04,-1.097930652079306865e-04,7.285155199171425419e-04
4.378122161421557163e-05,-8.181618621621309425e-05,-1.552576788796654903e-03,-6.592689420371046450e-04,3.861953472125472181e-04,3.513849709668316178e-04,1.988969574195097764e-04,3.532788349374507762e-04,-6.478306498455840379e-05,1.024907649883974141e-03
5.636685661819370793e-04,-1.462334881088939685e-04,-2.168456616811552384e-03,-1.021960901598586513e-03,9.832665608214164344e-04,3.451969632093257554e-04,6.647102883139570156e-04,1.402596743490170295e-04,-1.182531303924930346e-04,7.578020840358724646e-04
6.034192248067841947e-04,-2.579519863889219553e-04,-2.008246342773432457e-03,-1.146671486956588265e-03,1.190236890087440933e-03,5.948289134183285410e-04,4.136634591632073880e-04,8.077177842548878431e-05,-1.449232864147375027e-04,6.748728366324280217e-04
3.155903991371479533e-04,-3.058993021079051459e-04,-1.403610252604139443e-03,-7.696624779135832241e-04,1.174874678996582931e-03,2.911659861411542176e-04,4.245793846252965257e-04,-7.677842867409410835e-05,-2.810383942260920396e-04,6.307784066256324953e-04
2.424799030326302339e-04,-7.170257683756823489e-04,-1.086935069396976258e-03,-3.498050794702455045e-04,1.110358133201341758e-03,3.883248680693495878e-04,4.482043936914804102e-04,-2.908416794772718272e-04,-1.338317232463959324e-04,3.890720219717736482e-04
4.140532027350802440e-04,-1.519172171681044004e-03,-7.374906698952447869e-04,-5.098619702561172197e-04,1.580566653100942080e-03,1.029922049076633988e-03,5.693670146774900027e-04,-5.953409855410050086e-04,-5.471207846896825955e-04,3.150776624729428551e-04
3.552383423943847795e-04,-1.760428876324743102e-03,-3.737419024351219896e-04,-5.231345903003191194e-04,2.177839944563772240e-03,1.301683992497948070e-03,6.145598784946581855e-04,-1.702990815056013279e-03,1.238343358144919034e-04,-2.128603096490612392e-04
1.102075623443060599e-04,-7.071936256178402514e-04,-4.033592427302043156e-04,1.990311322796504891e-04,1.317731320629723663e-03,1.382624237552339827e-03,5.932734060378935846e-04,-2.805142259918953600e-03,8.278814629702448613e-04,-5.150539935471530953e-04
-1.130520179244769077e-03,1.286930415779448562e-03,-1.308990566627896894e-04,8.842968432957567029e-04,-3.528139970373844010e-04,8.969727694290460882e-04,-4.420040495843271687e-05,-2.848460503837605892e-03,1.140818924665338262e-03,2.978751885713900737e-04
-2.040257189765652159e-03,2.723435292735052957e-03,-3.462049136614950067e-04,7.083901951169652676e-04,-4.123612595548586490e-04,5.897340023986972910e-05,-4.802090955051398170e-04,-1.183945371591449067e-03,1.674410562218601735e-04,8.047378857648419294e-04
-2.392840486912501449e-03,1.755644803624606311e-03,-8.870814511095914809e-04,-4.645532861568896969e-05,7.075093082278861856e-04,-9.267634000117171535e-04,7.083700995410633218e-05,1.599226711017984323e-04,6.578654967807683138e-04,9.013613769603311598e-04
-2.023763297925188030e-03,4.140477737257065665e-04,-8.494686053464672133e-04,2.693156424283780245e-04,1.101032277593844665e-03,-1.498678651331493330e-03,1.210195373138756719e-04,7.679554659833495245e-04,3.184595910498372144e-04,1.380080266508154413e-03
-9.728204387862293559e-04,-6.377543750862152677e-05,-5.271265038079505933e-04,3.508824090885466268e-04,1.099978710709701313e-03,-8.961950067508234457e-04,-3.732591536994189405e-04,5.682801651412552717e-04,-4.078650618642303580e-04,1.221900317477761901e-03
-3.002814514609249120e-04,-8.173438399013261118e-04,-3.834065186266855238e-04,3.894591296315566141e-04,7.545491568647775442e-04,-5.199113066341350380e-04,-5.168153973401666329e-04,4.220512336249195961e-04,-5.630074837890906148e-05,1.027999742220893830e-03
-2.936793596587115905e-04,-7.677143767551800752e-04,-2.253232276352326959e-04,-4.046584309799026590e-04,6.020933389135264173e-04,-3.283452783600289437e-04,-2.347223110107224994e-04,2.304213587049325055e-04,1.029434292296894774e-04,1.318984857551629359e-03
-3.929887271772612625e-04,-5.028990907580657872e-04,-2.311817917342107252e-04,-9.048973485498244124e-04,7.841721060875625352e-04,-5.007927023891205111e-04,-1.181717868816850727e-04,4.158115834216095604e-04,3.310894271516247409e-04,1.119858330829367424e-03
2.961587268032858829e-04,-3.325083678113395676e-04,-2.102890686736704883e-04,-9.310862962998602129e-04,4.989363150400341618e-04,-1.056134123526784744e-03,5.362970068788424716e-04,2.383867691581513591e-04,3.961994424137568939e-05,9.206190941899651970e-04
1.007329880214807892e-03,-2.575985799569479131e-04,-4.397139768703984251e-04,-8.473400015521215245e-04,2.065810758480956600e-04,-1.343128703375939164e-03,1.135604078183765579e-03,1.385994062439017374e-04,2.042908020424983988e-04,1.953760192223421774e-04
1.305695509515788014e-03,-2.081246114528659480e-04,-3.803384011783578168e-04,-4.615034355035150756e-04,-1.477887032852632392e-04,-1.466201222966809171e-03,1.548244451213185357e-03,1.752098912188918329e-05,1.892094783060979321e-04,-3.967140537701527151e-04
8.697514416441460465e-04,-1.535388509353804466e-04,2.881405933811614700e-04,-1.726320342860904970e-04,-2.341310792749135364e-04,-9.512035666480398713e-04,8.112369283179666699e-04,1.362736250755967936e-05,5.023228013479368796e-05,-5.214830748412039750e-04
7.437323108869829463e-05,-6.779408732148943040e-05,5.407408276368453996e-04,-1.767457011893074390e-05,-3.575391823967152241e-05,-1.588143133229515287e-04,-1.731247641486448644e-04,4.148079631762219001e-05,1.324117552802359634e-05,-2.166743774195013653e-04
-1.259309476898621343e-05,-2.489502834946622547e-05,3.261672644524970469e-04,-2.491048400305524547e-06,-2.824916053661489899e-05,6.575628632411149456e-07,-1.821723677007183739e-04,2.393423515842668709e-06,-2.170276103979912200e-05,-5.711479003569080732e-05
